{"learner":{"attributes":{"scikit_learn":"{\"_estimator_type\": \"regressor\"}"},"feature_names":[],"feature_types":[],"gradient_booster":{"model":{"gbtree_model_param":{"num_parallel_tree":"1","num_trees":"100"},"iteration_indptr":[0,1,2,3,4,5,6,7,8,9,10,11,12,13,14,15,16,17,18,19,20,21,22,23,24,25,26,27,28,29,30,31,32,33,34,35,36,37,38,39,40,41,42,43,44,45,46,47,48,49,50,51,52,53,54,55,56,57,58,59,60,61,62,63,64,65,66,67,68,69,70,71,72,73,74,75,76,77,78,79,80,81,82,83,84,85,86,87,88,89,90,91,92,93,94,95,96,97,98,99,100],"tree_info":[0,0,0,0,0,0,0,0,0,0,0,0,0,0,0,0,0,0,0,0,0,0,0,0,0,0,0,0,0,0,0,0,0,0,0,0,0,0,0,0,0,0,0,0,0,0,0,0,0,0,0,0,0,0,0,0,0,0,0,0,0,0,0,0,0,0,0,0,0,0,0,0,0,0,0,0,0,0,0,0,0,0,0,0,0,0,0,0,0,0,0,0,0,0,0,0,0,0,0,0],"trees":[{"base_weights":[-0E0,-1.0453125E1,4.479911E0,-3.9525E0,-5.7187504E-1],"categories":[],"categories_nodes":[],"categories_segments":[],"categories_sizes":[],"default_left":[0,0,0,0,0],"id":0,"left_children":[1,3,-1,-1,-1],"loss_changes":[5.307294E3,4.4015576E2,0E0,0E0,0E0],"parents":[2147483647,0,0,1,1],"right_children":[2,4,-1,-1,-1],"split_conditions":[7.26548E-1,-2.5979596E-1,4.479911E0,-3.9525E0,-5.7187504E-1],"split_indices":[0,0,0,0,0],"split_type":[0,0,0,0,0],"sum_hessian":[3.2E1,1.9E1,1.3E1,1.4E1,5E0],"tree_param":{"num_deleted":"0","num_feature":"100","num_nodes":"5","size_leaf_vector":"1"}},{"base_weights":[-1.3481487E-3,-7.543407E0,1.0773118E1,-3.0650773E0,-2.256016E0,1.5798212E0,3.734799E0,-8.8207513E-1,-2.5101572E-1],"categories":[],"categories_nodes":[],"categories_segments":[],"categories_sizes":[],"default_left":[0,0,0,0,0,0,0,0,0],"id":1,"left_children":[1,3,5,-1,7,-1,-1,-1,-1],"loss_changes":[2.7629004E3,2.5966907E2,6.3674683E1,0E0,5.308895E0,0E0,0E0,0E0,0E0],"parents":[2147483647,0,0,1,1,2,2,4,4],"right_children":[2,4,6,-1,8,-1,-1,-1,-1],"split_conditions":[7.26548E-1,-6.120617E-1,1.0083606E0,-3.0650773E0,-1.18889675E-1,1.5798212E0,3.734799E0,-8.8207513E-1,-2.5101572E-1],"split_indices":[0,0,0,0,0,0,0,0,0],"split_type":[0,0,0,0,0,0,0,0,0],"sum_hessian":[3.2E1,1.9E1,1.3E1,1.2E1,7E0,4E0,9E0,4E0,3E0],"tree_param":{"num_deleted":"0","num_feature":"100","num_nodes":"9","size_leaf_vector":"1"}},{"base_weights":[3.2888006E-2,-5.4902935E0,7.920798E0,-2.2162867E0,-1.7208476E0,1.3054426E0,2.8260775E0,-7.4545527E-1,-2.2964264E-1],"categories":[],"categories_nodes":[],"categories_segments":[],"categories_sizes":[],"default_left":[0,0,0,0,0,0,0,0,0],"id":2,"left_children":[1,3,5,-1,7,-1,-1,-1,-1],"loss_changes":[1.4811772E3,1.3032458E2,3.3936768E1,0E0,3.9371662E0,0E0,0E0,0E0,0E0],"parents":[2147483647,0,0,1,1,2,2,4,4],"right_children":[2,4,6,-1,8,-1,-1,-1,-1],"split_conditions":[7.26548E-1,-6.120617E-1,1.0788138E0,-2.2162867E0,-1.8934281E-1,1.3054426E0,2.8260775E0,-7.4545527E-1,-2.2964264E-1],"split_indices":[0,0,0,0,0,0,0,0,0],"split_type":[0,0,0,0,0,0,0,0,0],"sum_hessian":[3.2E1,1.9E1,1.3E1,1.2E1,7E0,5E0,8E0,3E0,4E0],"tree_param":{"num_deleted":"0","num_feature":"100","num_nodes":"9","size_leaf_vector":"1"}},{"base_weights":[5.151107E-2,-4.002774E0,5.8396673E0,-1.6025454E0,-1.3264806E0,1.0222865E0,2.1713247E0,-5.77728E-1,-1.7452836E-1],"categories":[],"categories_nodes":[],"categories_segments":[],"categories_sizes":[],"default_left":[0,0,0,0,0,0,0,0,0],"id":3,"left_children":[1,3,5,-1,7,-1,-1,-1,-1],"loss_changes":[7.9778046E2,6.458768E1,2.293927E1,0E0,2.4500256E0,0E0,0E0,0E0,0E0],"parents":[2147483647,0,0,1,1,2,2,4,4],"right_children":[2,4,6,-1,8,-1,-1,-1,-1],"split_conditions":[7.26548E-1,-6.120617E-1,1.21972E0,-1.6025454E0,-1.8934281E-1,1.0222865E0,2.1713247E0,-5.77728E-1,-1.7452836E-1],"split_indices":[0,0,0,0,0,0,0,0,0],"split_type":[0,0,0,0,0,0,0,0,0],"sum_hessian":[3.2E1,1.9E1,1.3E1,1.2E1,7E0,6E0,7E0,3E0,4E0],"tree_param":{"num_deleted":"0","num_feature":"100","num_nodes":"9","size_leaf_vector":"1"}},{"base_weights":[6.1475985E-2,-2.9196823E0,4.315882E0,-1.1054517E0,-1.5605307E-1,7.594132E-1,1.6013519E0],"categories":[],"categories_nodes":[],"categories_segments":[],"categories_sizes":[],"default_left":[0,0,0,0,0,0,0],"id":4,"left_children":[1,3,5,-1,-1,-1,-1],"loss_changes":[4.311419E2,3.4803192E1,1.2019531E1,0E0,0E0,0E0,0E0],"parents":[2147483647,0,0,1,1,2,2],"right_children":[2,4,6,-1,-1,-1,-1],"split_conditions":[7.26548E-1,-2.5979596E-1,1.21972E0,-1.1054517E0,-1.5605307E-1,7.594132E-1,1.6013519E0],"split_indices":[0,0,0,0,0,0,0],"split_type":[0,0,0,0,0,0,0],"sum_hessian":[3.2E1,1.9E1,1.3E1,1.4E1,5E0,6E0,7E0],"tree_param":{"num_deleted":"0","num_feature":"100","num_nodes":"7","size_leaf_vector":"1"}},{"base_weights":[7.6343656E-2,-2.1068528E0,3.1897426E0,-8.8005096E-1,-7.705574E-1,1.9577732E0,1.242609E0,-3.0109322E-1,-6.848645E-2,1.7484342E-1,6.212813E-1],"categories":[],"categories_nodes":[],"categories_segments":[],"categories_sizes":[],"default_left":[0,0,0,0,0,0,0,0,0,0,0],"id":5,"left_children":[1,3,5,-1,7,9,-1,-1,-1,-1,-1],"loss_changes":[2.3102663E2,1.983255E1,8.315491E0,0E0,9.0844107E-1,3.7809372E-2,0E0,0E0,0E0,0E0,0E0],"parents":[2147483647,0,0,1,1,2,2,4,4,5,5],"right_children":[2,4,6,-1,8,10,-1,-1,-1,-1,-1],"split_conditions":[7.26548E-1,-9.643274E-1,1.2901732E0,-8.8005096E-1,-1.18889675E-1,7.970012E-1,1.242609E0,-3.0109322E-1,-6.848645E-2,1.7484342E-1,6.212813E-1],"split_indices":[0,0,0,0,0,0,0,0,0,0,0],"split_type":[0,0,0,0,0,0,0,0,0,0,0],"sum_hessian":[3.2E1,1.9E1,1.3E1,1.1E1,8E0,7E0,6E0,5E0,3E0,1E0,6E0],"tree_param":{"num_deleted":"0","num_feature":"100","num_nodes":"11","size_leaf_vector":"1"}},{"base_weights":[7.735264E-2,-1.5372783E0,2.378443E0,-6.22293E-1,-4.724424E-1,4.881752E-1,1.0215418E0,-2.2463952E-1,-7.6657206E-2],"categories":[],"categories_nodes":[],"categories_segments":[],"categories_sizes":[],"default_left":[0,0,0,0,0,0,0,0,0],"id":6,"left_children":[1,3,5,-1,7,-1,-1,-1,-1],"loss_changes":[1.2626491E2,1.0457016E1,5.256439E0,0E0,2.8823757E-1,0E0,0E0,0E0,0E0],"parents":[2147483647,0,0,1,1,2,2,4,4],"right_children":[2,4,6,-1,8,-1,-1,-1,-1],"split_conditions":[7.26548E-1,-6.120617E-1,1.3606263E0,-6.22293E-1,-2.5979596E-1,4.881752E-1,1.0215418E0,-2.2463952E-1,-7.6657206E-2],"split_indices":[0,0,0,0,0,0,0,0,0],"split_type":[0,0,0,0,0,0,0,0,0],"sum_hessian":[3.2E1,1.9E1,1.3E1,1.2E1,7E0,9E0,4E0,2E0,5E0],"tree_param":{"num_deleted":"0","num_feature":"100","num_nodes":"9","size_leaf_vector":"1"}},{"base_weights":[7.19086E-2,-1.1222742E0,1.7727476E0,-1.5563544E0,-4.1880333E-1,1.1878936E0,7.763718E-1,-5.98391E-1,-3.263651E-1,-1.9645257E-1,-5.7493117E-2,7.5390816E-2,3.7921104E-1],"categories":[],"categories_nodes":[],"categories_segments":[],"categories_sizes":[],"default_left":[0,0,0,0,0,0,0,0,0,0,0,0,0],"id":7,"left_children":[1,3,5,7,9,11,-1,-1,-1,-1,-1,-1,-1],"loss_changes":[6.901622E1,5.455448E0,3.6003227E0,2.9393578E-1,3.570695E-1,3.954935E-1,0E0,0E0,0E0,0E0,0E0,0E0,0E0],"parents":[2147483647,0,0,1,1,2,2,3,3,4,4,5,5],"right_children":[2,4,6,8,10,12,-1,-1,-1,-1,-1,-1,-1],"split_conditions":[7.26548E-1,-9.643274E-1,1.3606263E0,-1.0347805E0,-2.5979596E-1,7.970012E-1,7.763718E-1,-5.98391E-1,-3.263651E-1,-1.9645257E-1,-5.7493117E-2,7.5390816E-2,3.7921104E-1],"split_indices":[0,0,0,0,0,0,0,0,0,0,0,0,0],"split_type":[0,0,0,0,0,0,0,0,0,0,0,0,0],"sum_hessian":[3.2E1,1.9E1,1.3E1,1.1E1,8E0,9E0,4E0,4E0,7E0,3E0,5E0,1E0,8E0],"tree_param":{"num_deleted":"0","num_feature":"100","num_nodes":"13","size_leaf_vector":"1"}},{"base_weights":[5.1919937E-2,-8.445271E-1,1.32885E0,-1.1665115E0,-3.213783E-1,1.4748505E-1,1.6145817E0,-4.5477724E-1,-2.4069443E-1,-1.4094475E-1,-3.2599527E-2,5.300288E-1,2.011715E-1],"categories":[],"categories_nodes":[],"categories_segments":[],"categories_sizes":[],"default_left":[0,0,0,0,0,0,0,0,0,0,0,0,0],"id":8,"left_children":[1,3,5,7,9,-1,11,-1,-1,-1,-1,-1,-1],"loss_changes":[3.8897358E1,2.9940233E0,2.5553799E0,3.10812E-1,2.3311913E-1,0E0,2.5186348E-1,0E0,0E0,0E0,0E0,0E0,0E0],"parents":[2147483647,0,0,1,1,2,2,3,3,4,4,6,6],"right_children":[2,4,6,8,10,-1,12,-1,-1,-1,-1,-1,-1],"split_conditions":[7.26548E-1,-9.643274E-1,1.0083606E0,-1.0347805E0,-1.8934281E-1,1.4748505E-1,1E0,-4.5477724E-1,-2.4069443E-1,-1.4094475E-1,-3.2599527E-2,5.300288E-1,2.011715E-1],"split_indices":[0,0,0,0,0,0,72,0,0,0,0,0,0],"split_type":[0,0,0,0,0,0,0,0,0,0,0,0,0],"sum_hessian":[3.2E1,1.9E1,1.3E1,1.1E1,8E0,4E0,9E0,4E0,7E0,4E0,4E0,7E0,2E0],"tree_param":{"num_deleted":"0","num_feature":"100","num_nodes":"13","size_leaf_vector":"1"}},{"base_weights":[3.6637045E-2,-6.346197E-1,9.9295837E-1,-8.067563E-1,-9.85082E-2,6.4690644E-1,5.089085E-1,-3.4563082E-1,-1.7293179E-1,-3.836079E-2,-1.55581E-2,4.1959763E-2,2.0508718E-1],"categories":[],"categories_nodes":[],"categories_segments":[],"categories_sizes":[],"default_left":[0,0,0,0,0,0,0,0,0,0,0,0,0],"id":9,"left_children":[1,3,5,7,9,11,-1,-1,-1,-1,-1,-1,-1],"loss_changes":[2.1814077E1,1.7662153E0,2.3104095E0,5.289707E-1,1.5864447E-3,1.09173775E-1,0E0,0E0,0E0,0E0,0E0,0E0,0E0],"parents":[2147483647,0,0,1,1,2,2,3,3,4,4,5,5],"right_children":[2,4,6,8,10,12,-1,-1,-1,-1,-1,-1,-1],"split_conditions":[7.26548E-1,-2.5979596E-1,1.4310794E0,-1.0347805E0,-1.18889675E-1,7.970012E-1,5.089085E-1,-3.4563082E-1,-1.7293179E-1,-3.836079E-2,-1.55581E-2,4.1959763E-2,2.0508718E-1],"split_indices":[0,0,0,0,0,0,0,0,0,0,0,0,0],"split_type":[0,0,0,0,0,0,0,0,0,0,0,0,0],"sum_hessian":[3.2E1,1.9E1,1.3E1,1.4E1,5E0,1E1,3E0,4E0,1E1,2E0,3E0,1E0,9E0],"tree_param":{"num_deleted":"0","num_feature":"100","num_nodes":"13","size_leaf_vector":"1"}},{"base_weights":[3.1206131E-2,-4.7285795E-1,7.490687E-1,-6.584274E-1,-1.7289226E-1,4.752943E-1,3.9440432E-1,-2.6267946E-1,-1.3211769E-1,-8.162828E-2,-7.7942215E-2,7.26558E-2,1.7217033E-1,-3.0688668E-2,-1.2057495E-2],"categories":[],"categories_nodes":[],"categories_segments":[],"categories_sizes":[],"default_left":[0,0,0,0,0,0,0,0,0,0,0,0,0,0,0],"id":10,"left_children":[1,3,5,7,9,11,-1,-1,-1,-1,13,-1,-1,-1,-1],"loss_changes":[1.2295211E1,9.994526E-1,1.5430427E0,1.8260384E-1,6.356546E-2,1.138556E-1,0E0,0E0,0E0,0E0,1.4046878E-3,0E0,0E0,0E0,0E0],"parents":[2147483647,0,0,1,1,2,2,3,3,4,4,5,5,10,10],"right_children":[2,4,6,8,10,12,-1,-1,-1,-1,14,-1,-1,-1,-1],"split_conditions":[7.26548E-1,-9.643274E-1,1.4310794E0,-1.0347805E0,-2.5979596E-1,1.0083606E0,3.9440432E-1,-2.6267946E-1,-1.3211769E-1,-8.162828E-2,-1.18889675E-1,7.26558E-2,1.7217033E-1,-3.0688668E-2,-1.2057495E-2],"split_indices":[0,0,0,0,0,0,0,0,0,0,0,0,0,0,0],"split_type":[0,0,0,0,0,0,0,0,0,0,0,0,0,0,0],"sum_hessian":[3.2E1,1.9E1,1.3E1,1.1E1,8E0,1E1,3E0,4E0,7E0,3E0,5E0,4E0,6E0,2E0,3E0],"tree_param":{"num_deleted":"0","num_feature":"100","num_nodes":"15","size_leaf_vector":"1"}},{"base_weights":[2.5482986E-2,-3.5695878E-1,5.7000816E-1,-1.9963647E-1,-2.3824382E-1,3.5496417E-1,3.056631E-1,-9.386731E-2,-6.1683338E-2,5.5218663E-2,1.2789837E-1,-2.4550822E-2,-9.344388E-3],"categories":[],"categories_nodes":[],"categories_segments":[],"categories_sizes":[],"default_left":[0,0,0,0,0,0,0,0,0,0,0,0,0],"id":11,"left_children":[1,3,5,-1,7,9,-1,-1,11,-1,-1,-1,-1],"loss_changes":[7.0756917E0,5.7392144E-1,9.89707E-1,0E0,1.9157577E-1,5.5687428E-2,0E0,0E0,1.1432003E-3,0E0,0E0,0E0,0E0],"parents":[2147483647,0,0,1,1,2,2,4,4,5,5,8,8],"right_children":[2,4,6,-1,8,10,-1,-1,12,-1,-1,-1,-1],"split_conditions":[7.26548E-1,-1.0347805E0,1.4310794E0,-1.9963647E-1,-2.5979596E-1,1.0083606E0,3.056631E-1,-9.386731E-2,-1.18889675E-1,5.5218663E-2,1.2789837E-1,-2.4550822E-2,-9.344388E-3],"split_indices":[0,0,0,0,0,0,0,0,0,0,0,0,0],"split_type":[0,0,0,0,0,0,0,0,0,0,0,0,0],"sum_hessian":[3.2E1,1.9E1,1.3E1,4E0,1.5E1,1E1,3E0,1E1,5E0,4E0,6E0,2E0,3E0],"tree_param":{"num_deleted":"0","num_feature":"100","num_nodes":"13","size_leaf_vector":"1"}},{"base_weights":[2.2728601E-2,-2.662406E-1,4.3391827E-1,-2.0732732E-1,-2.0750684E-1,2.6512182E-1,2.368887E-1,-2.6069036E-1,-4.8827488E-2,4.19664E-2,9.501E-2,-8.107477E-2,-2.0463753E-2,-1.964054E-2,-7.241965E-3],"categories":[],"categories_nodes":[],"categories_segments":[],"categories_sizes":[],"default_left":[0,0,0,0,0,0,0,0,0,0,0,0,0,0,0],"id":12,"left_children":[1,3,5,-1,7,9,-1,11,13,-1,-1,-1,-1,-1,-1],"loss_changes":[4.0366244E0,3.556553E-1,6.3125014E-1,0E0,1.4761454E-1,2.6750147E-2,0E0,7.323861E-3,8.845553E-4,0E0,0E0,0E0,0E0,0E0,0E0],"parents":[2147483647,0,0,1,1,2,2,4,4,5,5,7,7,8,8],"right_children":[2,4,6,-1,8,10,-1,12,14,-1,-1,-1,-1,-1,-1],"split_conditions":[7.26548E-1,-1.1052337E0,1.4310794E0,-2.0732732E-1,-2.5979596E-1,1.0083606E0,2.368887E-1,1E0,-1.18889675E-1,4.19664E-2,9.501E-2,-8.107477E-2,-2.0463753E-2,-1.964054E-2,-7.241965E-3],"split_indices":[0,0,0,0,0,0,0,10,0,0,0,0,0,0,0],"split_type":[0,0,0,0,0,0,0,0,0,0,0,0,0,0,0],"sum_hessian":[3.2E1,1.9E1,1.3E1,1E0,1.8E1,1E1,3E0,1.3E1,5E0,4E0,6E0,1.2E1,1E0,2E0,3E0],"tree_param":{"num_deleted":"0","num_feature":"100","num_nodes":"15","size_leaf_vector":"1"}},{"base_weights":[1.7065598E-2,-1.9024654E-1,3.506417E-1,-1.7622828E-1,-1.410161E-1,6.331479E-2,1.835887E-1,-1.8973541E-1,-2.3432324E-2,-6.210069E-2,-2.8445292E-2,-3.8659733E-2,1.018982E-2,-1.5712548E-2,-5.612469E-3],"categories":[],"categories_nodes":[],"categories_segments":[],"categories_sizes":[],"default_left":[0,0,0,0,0,0,0,0,0,0,0,0,0,0,0],"id":13,"left_children":[1,3,5,-1,7,-1,-1,9,11,-1,-1,13,-1,-1,-1],"loss_changes":[2.3488028E0,3.277846E-1,3.4506464E-1,0E0,1.1012611E-1,0E0,0E0,3.3175945E-3,7.43132E-3,0E0,0E0,6.6201296E-4,0E0,0E0,0E0],"parents":[2147483647,0,0,1,1,2,2,4,4,7,7,8,8,11,11],"right_children":[2,4,6,-1,8,-1,-1,10,12,-1,-1,14,-1,-1,-1],"split_conditions":[7.970012E-1,-1.1052337E0,1.4310794E0,-1.7622828E-1,-2.5979596E-1,6.331479E-2,1.835887E-1,-9.643274E-1,7.26548E-1,-6.210069E-2,-2.8445292E-2,-1.18889675E-1,1.018982E-2,-1.5712548E-2,-5.612469E-3],"split_indices":[0,0,0,0,0,0,0,0,0,0,0,0,0,0,0],"split_type":[0,0,0,0,0,0,0,0,0,0,0,0,0,0,0],"sum_hessian":[3.2E1,2E1,1.2E1,1E0,1.9E1,9E0,3E0,1.3E1,6E0,1E1,3E0,5E0,1E0,2E0,3E0],"tree_param":{"num_deleted":"0","num_feature":"100","num_nodes":"15","size_leaf_vector":"1"}},{"base_weights":[1.1006124E-2,-1.566133E-1,2.496763E-1,-1.4979401E-1,-1.12296805E-1,1.6895705E-1,1.9485398E-1,-4.1784566E-2,-3.0615488E-2,6.782521E-2,2.6308006E-2,-1.257E-2,-4.34947E-3],"categories":[],"categories_nodes":[],"categories_segments":[],"categories_sizes":[],"default_left":[0,0,0,0,0,0,0,0,0,0,0,0,0],"id":14,"left_children":[1,3,5,-1,7,9,-1,-1,11,-1,-1,-1,-1],"loss_changes":[1.3592926E0,2.4767405E-1,3.4210366E-1,0E0,3.7615165E-2,4.0524483E-2,0E0,0E0,4.8377598E-4,0E0,0E0,0E0,0E0],"parents":[2147483647,0,0,1,1,2,2,4,4,5,5,8,8],"right_children":[2,4,6,-1,8,10,-1,-1,12,-1,-1,-1,-1],"split_conditions":[7.26548E-1,-1.1052337E0,1.5015326E0,-1.4979401E-1,-2.5979596E-1,1E0,1.9485398E-1,-4.1784566E-2,-1.18889675E-1,6.782521E-2,2.6308006E-2,-1.257E-2,-4.34947E-3],"split_indices":[0,0,0,0,0,70,0,0,0,0,0,0,0],"split_type":[0,0,0,0,0,0,0,0,0,0,0,0,0],"sum_hessian":[3.2E1,1.9E1,1.3E1,1E0,1.8E1,1.2E1,1E0,1.3E1,5E0,6E0,6E0,2E0,3E0],"tree_param":{"num_deleted":"0","num_feature":"100","num_nodes":"13","size_leaf_vector":"1"}},{"base_weights":[1.0143424E-2,-1.128407E-1,2.0802982E-1,-1.2732497E-1,-7.604108E-2,1.3335133E-1,1.6562577E-1,-1.12561055E-1,-2.8265E-2,1.4608384E-2,4.6847917E-2,-4.437511E-2,-2.424388E-2,-1.3457013E-2,-2.70195E-3,-3.3710005E-3,4.715538E-3],"categories":[],"categories_nodes":[],"categories_segments":[],"categories_sizes":[],"default_left":[0,0,0,0,0,0,0,0,0,0,0,0,0,0,0,0,0],"id":15,"left_children":[1,3,5,-1,7,9,-1,11,13,-1,-1,-1,-1,-1,15,-1,-1],"loss_changes":[8.2659143E-1,2.0851022E-1,2.6039523E-1,0E0,3.1714104E-2,1.5566483E-2,0E0,3.9371848E-4,4.120146E-3,0E0,0E0,0E0,0E0,0E0,9.626882E-4,0E0,0E0],"parents":[2147483647,0,0,1,1,2,2,4,4,5,5,7,7,8,8,14,14],"right_children":[2,4,6,-1,8,10,-1,12,14,-1,-1,-1,-1,-1,16,-1,-1],"split_conditions":[7.970012E-1,-1.1052337E0,1.5015326E0,-1.2732497E-1,-9.643274E-1,1.0083606E0,1.6562577E-1,-1.0347805E0,-1.18889675E-1,1.4608384E-2,4.6847917E-2,-4.437511E-2,-2.424388E-2,-1.3457013E-2,7.26548E-1,-3.3710005E-3,4.715538E-3],"split_indices":[0,0,0,0,0,0,0,0,0,0,0,0,0,0,0,0,0],"split_type":[0,0,0,0,0,0,0,0,0,0,0,0,0,0,0,0,0],"sum_hessian":[3.2E1,2E1,1.2E1,1E0,1.9E1,1.1E1,1E0,1E1,9E0,3E0,8E0,3E0,7E0,5E0,4E0,3E0,1E0],"tree_param":{"num_deleted":"0","num_feature":"100","num_nodes":"17","size_leaf_vector":"1"}},{"base_weights":[7.676616E-3,-8.889598E-2,1.63088E-1,-1.0822621E-1,-5.726538E-2,9.846655E-2,1.4078179E-1,-8.503047E-2,-2.0997237E-2,3.8337708E-2,1.43526085E-2,-3.4390643E-2,-1.7879749E-2,-1.0092926E-2,-1.6227722E-3,-2.6126863E-3,4.008293E-3],"categories":[],"categories_nodes":[],"categories_segments":[],"categories_sizes":[],"default_left":[0,0,0,0,0,0,0,0,0,0,0,0,0,0,0,0,0],"id":16,"left_children":[1,3,5,-1,7,9,-1,11,13,-1,-1,-1,-1,-1,15,-1,-1],"loss_changes":[5.0977767E-1,1.5992098E-1,2.1101153E-1,0E0,1.8354371E-2,1.1701427E-2,0E0,1.449652E-3,2.395471E-3,0E0,0E0,0E0,0E0,0E0,6.47248E-4,0E0,0E0],"parents":[2147483647,0,0,1,1,2,2,4,4,5,5,7,7,8,8,14,14],"right_children":[2,4,6,-1,8,10,-1,12,14,-1,-1,-1,-1,-1,16,-1,-1],"split_conditions":[7.970012E-1,-1.1052337E0,1.5015326E0,-1.0822621E-1,-9.643274E-1,1E0,1.4078179E-1,-1.0347805E0,-1.18889675E-1,3.8337708E-2,1.43526085E-2,-3.4390643E-2,-1.7879749E-2,-1.0092926E-2,7.26548E-1,-2.6126863E-3,4.008293E-3],"split_indices":[0,0,0,0,0,70,0,0,0,0,0,0,0,0,0,0,0],"split_type":[0,0,0,0,0,0,0,0,0,0,0,0,0,0,0,0,0],"sum_hessian":[3.2E1,2E1,1.2E1,1E0,1.9E1,1.1E1,1E0,1E1,9E0,6E0,5E0,3E0,7E0,5E0,4E0,3E0,1E0],"tree_param":{"num_deleted":"0","num_feature":"100","num_nodes":"17","size_leaf_vector":"1"}},{"base_weights":[6.1096423E-3,-1.8629551E-2,1.1966458E-1,-1.9373055E-1,1.3303825E-2,-9.199233E-2,-2.665279E-2,-3.3126473E-2,6.9425434E-2,-1.2897606E-2,-1.4300482E-2,9.493147E-2,1.02004465E-2,-6.005478E-3,-2.402916E-3,1.0366694E-1,6.3777925E-3,6.3777925E-3,3.4768984E-2],"categories":[],"categories_nodes":[],"categories_segments":[],"categories_sizes":[],"default_left":[0,0,0,0,0,0,0,0,0,0,0,0,0,0,0,0,0,0,0],"id":17,"left_children":[1,3,-1,5,7,-1,-1,9,11,-1,13,15,-1,-1,-1,17,-1,-1,-1],"loss_changes":[3.2808766E-1,1.8150747E-1,0E0,3.197196E-2,7.5260624E-2,0E0,0E0,2.3568533E-3,8.518003E-3,0E0,9.144354E-5,2.3010522E-3,0E0,0E0,0E0,3.5830215E-3,0E0,0E0,0E0],"parents":[2147483647,0,0,1,1,3,3,4,4,7,7,8,8,10,10,11,11,15,15],"right_children":[2,4,-1,6,8,-1,-1,10,12,-1,14,16,-1,-1,-1,18,-1,-1,-1],"split_conditions":[1.5015326E0,-1.0347805E0,1.1966458E-1,-1.1052337E0,7.26548E-1,-9.199233E-2,-2.665279E-2,1E0,1E0,-1.2897606E-2,-2.5979596E-1,1E0,1.02004465E-2,-6.005478E-3,-2.402916E-3,1E0,6.3777925E-3,6.3777925E-3,3.4768984E-2],"split_indices":[0,0,0,0,0,0,0,56,70,0,0,1,0,0,0,6,0,0,0],"split_type":[0,0,0,0,0,0,0,0,0,0,0,0,0,0,0,0,0,0,0],"sum_hessian":[3.2E1,3.1E1,1E0,4E0,2.7E1,1E0,3E0,1.5E1,1.2E1,9E0,6E0,6E0,6E0,2E0,4E0,5E0,1E0,1E0,4E0],"tree_param":{"num_deleted":"0","num_feature":"100","num_nodes":"19","size_leaf_vector":"1"}},{"base_weights":[5.411495E-3,-1.5610039E-2,1.01715095E-1,-7.819348E-2,7.022119E-4,-3.51439E-2,5.303867E-2,-2.0656014E-2,-2.452004E-2,7.324219E-2,2.52582E-2,-2.8656445E-2,-1.4840127E-3,7.942581E-2,5.4210667E-3,1.8768312E-3,8.21476E-3,-8.908987E-3,-2.4261475E-3,5.4210667E-3,2.6424868E-2],"categories":[],"categories_nodes":[],"categories_segments":[],"categories_sizes":[],"default_left":[0,0,0,0,0,0,0,0,0,0,0,0,0,0,0,0,0,0,0,0,0],"id":18,"left_children":[1,3,-1,-1,5,7,9,-1,11,13,15,17,-1,19,-1,-1,-1,-1,-1,-1,-1],"loss_changes":[2.3674135E-1,1.280893E-1,0E0,0E0,6.0021807E-2,5.1160846E-3,5.4464564E-3,0E0,1.1536572E-3,9.5289573E-4,1.11259054E-4,3.798306E-5,0E0,1.5952848E-3,0E0,0E0,0E0,0E0,0E0,0E0,0E0],"parents":[2147483647,0,0,1,1,4,4,5,5,6,6,8,8,9,9,10,10,11,11,13,13],"right_children":[2,4,-1,-1,6,8,10,-1,12,14,16,18,-1,20,-1,-1,-1,-1,-1,-1,-1],"split_conditions":[1.5015326E0,-1.1052337E0,1.01715095E-1,-7.819348E-2,7.26548E-1,-1.0347805E0,1E0,-2.0656014E-2,-1.18889675E-1,1E0,7.970012E-1,1E0,-1.4840127E-3,1E0,5.4210667E-3,1.8768312E-3,8.21476E-3,-8.908987E-3,-2.4261475E-3,5.4210667E-3,2.6424868E-2],"split_indices":[0,0,0,0,0,0,70,0,0,1,0,10,0,6,0,0,0,0,0,0,0],"split_type":[0,0,0,0,0,0,0,0,0,0,0,0,0,0,0,0,0,0,0,0,0],"sum_hessian":[3.2E1,3.1E1,1E0,1E0,3E1,1.8E1,1.2E1,3E0,1.5E1,6E0,6E0,1.2E1,3E0,5E0,1E0,1E0,5E0,1.1E1,1E0,1E0,4E0],"tree_param":{"num_deleted":"0","num_feature":"100","num_nodes":"21","size_leaf_vector":"1"}},{"base_weights":[4.921913E-3,-1.2936324E-2,8.6457826E-2,-6.6464424E-2,9.397999E-4,-2.636252E-2,4.0770896E-2,-1.6008496E-2,-1.7965078E-2,3.7973786E-3,5.1859114E-2,-6.8662995E-3,-5.9461594E-3,5.4501534E-2,4.607964E-3,-2.609253E-4,-2.0362474E-3,4.607964E-3,1.736968E-2],"categories":[],"categories_nodes":[],"categories_segments":[],"categories_sizes":[],"default_left":[0,0,0,0,0,0,0,0,0,0,0,0,0,0,0,0,0,0,0],"id":19,"left_children":[1,3,-1,-1,5,7,9,-1,11,-1,13,-1,15,17,-1,-1,-1,-1,-1],"loss_changes":[1.7066585E-1,9.283934E-2,0E0,0E0,3.4786746E-2,3.349103E-3,3.3959653E-3,0E0,8.1053283E-4,0E0,3.0880794E-5,0E0,1.9722225E-5,1.7451681E-4,0E0,0E0,0E0,0E0,0E0],"parents":[2147483647,0,0,1,1,4,4,5,5,6,6,8,8,10,10,12,12,13,13],"right_children":[2,4,-1,-1,6,8,10,-1,12,-1,14,-1,16,18,-1,-1,-1,-1,-1],"split_conditions":[1.5015326E0,-1.1052337E0,8.6457826E-2,-6.6464424E-2,7.26548E-1,-1.0347805E0,1.0083606E0,-1.6008496E-2,-2.5979596E-1,3.7973786E-3,1E0,-6.8662995E-3,-1.8934281E-1,1E0,4.607964E-3,-2.609253E-4,-2.0362474E-3,4.607964E-3,1.736968E-2],"split_indices":[0,0,0,0,0,0,0,0,0,0,1,0,0,6,0,0,0,0,0],"split_type":[0,0,0,0,0,0,0,0,0,0,0,0,0,0,0,0,0,0,0],"sum_hessian":[3.2E1,3.1E1,1E0,1E0,3E1,1.8E1,1.2E1,3E0,1.5E1,4E0,8E0,1E1,5E0,7E0,1E0,1E0,4E0,1E0,6E0],"tree_param":{"num_deleted":"0","num_feature":"100","num_nodes":"19","size_leaf_vector":"1"}},{"base_weights":[4.2097494E-3,-1.0968983E-2,7.348938E-2,-5.649476E-2,8.2658953E-4,-1.9778352E-2,3.087792E-2,-1.2406612E-2,-1.314795E-2,4.5352392E-2,1.1992319E-2,-5.5830004E-3,-5.3596497E-3,4.855919E-2,3.9167404E-3,1.0259629E-3,3.855324E-3,-2.41313E-3,-6.42128E-4,3.9167404E-3,1.5914613E-2],"categories":[],"categories_nodes":[],"categories_segments":[],"categories_sizes":[],"default_left":[0,0,0,0,0,0,0,0,0,0,0,0,0,0,0,0,0,0,0,0,0],"id":20,"left_children":[1,3,-1,-1,5,7,9,-1,11,13,15,-1,17,19,-1,-1,-1,-1,-1,-1,-1],"loss_changes":[1.23280674E-1,6.7096725E-2,0E0,0E0,1.9806098E-2,2.1744836E-3,3.0097887E-3,0E0,5.8089825E-4,9.100046E-5,7.582712E-6,0E0,5.1909068E-5,2.637664E-4,0E0,0E0,0E0,0E0,0E0,0E0,0E0],"parents":[2147483647,0,0,1,1,4,4,5,5,6,6,8,8,9,9,10,10,12,12,13,13],"right_children":[2,4,-1,-1,6,8,10,-1,12,14,16,-1,18,20,-1,-1,-1,-1,-1,-1,-1],"split_conditions":[1.5015326E0,-1.1052337E0,7.348938E-2,-5.649476E-2,7.26548E-1,-1.0347805E0,1E0,-1.2406612E-2,1E0,1E0,7.970012E-1,-5.5830004E-3,-2.5979596E-1,1E0,3.9167404E-3,1.0259629E-3,3.855324E-3,-2.41313E-3,-6.42128E-4,3.9167404E-3,1.5914613E-2],"split_indices":[0,0,0,0,0,0,70,0,92,1,0,0,0,6,0,0,0,0,0,0,0],"split_type":[0,0,0,0,0,0,0,0,0,0,0,0,0,0,0,0,0,0,0,0,0],"sum_hessian":[3.2E1,3.1E1,1E0,1E0,3E1,1.8E1,1.2E1,3E0,1.5E1,6E0,6E0,8E0,7E0,5E0,1E0,1E0,5E0,3E0,4E0,1E0,4E0],"tree_param":{"num_deleted":"0","num_feature":"100","num_nodes":"21","size_leaf_vector":"1"}},{"base_weights":[3.6912975E-3,-9.20707E-3,6.246586E-2,-4.8020557E-2,8.229286E-4,-1.4952509E-2,2.3816036E-2,-9.615183E-3,-9.743452E-3,1.0541644E-2,2.7272906E-3,-4.094251E-3,-4.133463E-3,-1.8702508E-3,-4.8786163E-4],"categories":[],"categories_nodes":[],"categories_segments":[],"categories_sizes":[],"default_left":[0,0,0,0,0,0,0,0,0,0,0,0,0,0,0],"id":21,"left_children":[1,3,-1,-1,5,7,9,-1,11,-1,-1,-1,13,-1,-1],"loss_changes":[8.897374E-2,4.8552204E-2,0E0,0E0,1.1600625E-2,1.3799514E-3,1.8480262E-3,0E0,2.940155E-4,0E0,0E0,0E0,3.199803E-5,0E0,0E0],"parents":[2147483647,0,0,1,1,4,4,5,5,6,6,8,8,12,12],"right_children":[2,4,-1,-1,6,8,10,-1,12,-1,-1,-1,14,-1,-1],"split_conditions":[1.5015326E0,-1.1052337E0,6.246586E-2,-4.8020557E-2,7.26548E-1,-1.0347805E0,1E0,-9.615183E-3,1E0,1.0541644E-2,2.7272906E-3,-4.094251E-3,-2.5979596E-1,-1.8702508E-3,-4.8786163E-4],"split_indices":[0,0,0,0,0,0,70,0,92,0,0,0,0,0,0],"split_type":[0,0,0,0,0,0,0,0,0,0,0,0,0,0,0],"sum_hessian":[3.2E1,3.1E1,1E0,1E0,3E1,1.8E1,1.2E1,3E0,1.5E1,6E0,6E0,8E0,7E0,3E0,4E0],"tree_param":{"num_deleted":"0","num_feature":"100","num_nodes":"15","size_leaf_vector":"1"}},{"base_weights":[2.9374035E-3,-8.032471E-3,5.309601E-2,-4.08175E-2,4.863739E-4,-1.0591984E-2,1.8909773E-2,-7.4518207E-3,-6.6165924E-3,2.610452E-2,2.209282E-3,-9.318438E-3,-1.4256069E-3,2.8512955E-2,1.7480851E-3,-2.9971504E-3,-3.8967133E-4,-6.532669E-4,4.6291354E-4,1.7480851E-3,9.565431E-3],"categories":[],"categories_nodes":[],"categories_segments":[],"categories_sizes":[],"default_left":[0,0,0,0,0,0,0,0,0,0,0,0,0,0,0,0,0,0,0,0,0],"id":22,"left_children":[1,3,-1,-1,5,7,9,-1,11,13,-1,15,17,19,-1,-1,-1,-1,-1,-1,-1],"loss_changes":[6.44285E-2,3.4966413E-2,0E0,0E0,6.527423E-3,9.68429E-4,8.0456305E-4,0E0,2.2514467E-4,1.7571682E-4,0E0,4.630926E-5,1.8986E-5,2.731667E-4,0E0,0E0,0E0,0E0,0E0,0E0,0E0],"parents":[2147483647,0,0,1,1,4,4,5,5,6,6,8,8,9,9,11,11,12,12,13,13],"right_children":[2,4,-1,-1,6,8,10,-1,12,14,-1,16,18,20,-1,-1,-1,-1,-1,-1,-1],"split_conditions":[1.5015326E0,-1.1052337E0,5.309601E-2,-4.08175E-2,7.970012E-1,-1.0347805E0,1E0,-7.4518207E-3,-2.5979596E-1,1E0,2.209282E-3,1E0,7.26548E-1,1E0,1.7480851E-3,-2.9971504E-3,-3.8967133E-4,-6.532669E-4,4.6291354E-4,1.7480851E-3,9.565431E-3],"split_indices":[0,0,0,0,0,0,70,0,0,1,0,10,0,6,0,0,0,0,0,0,0],"split_type":[0,0,0,0,0,0,0,0,0,0,0,0,0,0,0,0,0,0,0,0,0],"sum_hessian":[3.2E1,3.1E1,1E0,1E0,3E1,1.9E1,1.1E1,3E0,1.6E1,6E0,5E0,1E1,6E0,5E0,1E0,9E0,1E0,5E0,1E0,1E0,4E0],"tree_param":{"num_deleted":"0","num_feature":"100","num_nodes":"21","size_leaf_vector":"1"}},{"base_weights":[2.5566274E-3,-6.7658722E-3,4.5131493E-2,-3.469491E-2,4.771448E-4,-7.965947E-3,1.4509201E-2,-5.7751182E-3,-4.842197E-3,2.0138333E-2,1.6571046E-3,-2.2812528E-3,-1.5421973E-3,9.131813E-3,1.3348262E-2,-9.706021E-4,-4.6920777E-5,1.2917519E-3,6.2866216E-3],"categories":[],"categories_nodes":[],"categories_segments":[],"categories_sizes":[],"default_left":[0,0,0,0,0,0,0,0,0,0,0,0,0,0,0,0,0,0,0],"id":23,"left_children":[1,3,-1,-1,5,7,9,-1,11,13,-1,-1,15,-1,17,-1,-1,-1,-1],"loss_changes":[4.6512537E-2,2.52919E-2,0E0,0E0,3.7882712E-3,6.117814E-4,4.957302E-4,0E0,1.4321978E-4,8.330098E-5,0E0,0E0,2.061112E-5,0E0,3.224914E-4,0E0,0E0,0E0,0E0],"parents":[2147483647,0,0,1,1,4,4,5,5,6,6,8,8,9,9,12,12,14,14],"right_children":[2,4,-1,-1,6,8,10,-1,12,14,-1,-1,16,-1,18,-1,-1,-1,-1],"split_conditions":[1.5015326E0,-1.1052337E0,4.5131493E-2,-3.469491E-2,7.970012E-1,-1.0347805E0,1E0,-5.7751182E-3,1E0,1.0788138E0,1.6571046E-3,-2.2812528E-3,-2.5979596E-1,9.131813E-3,1.4310794E0,-9.706021E-4,-4.6920777E-5,1.2917519E-3,6.2866216E-3],"split_indices":[0,0,0,0,0,0,70,0,92,0,0,0,0,0,0,0,0,0,0],"split_type":[0,0,0,0,0,0,0,0,0,0,0,0,0,0,0,0,0,0,0],"sum_hessian":[3.2E1,3.1E1,1E0,1E0,3E1,1.9E1,1.1E1,3E0,1.6E1,6E0,5E0,8E0,8E0,1E0,5E0,3E0,5E0,3E0,2E0],"tree_param":{"num_deleted":"0","num_feature":"100","num_nodes":"19","size_leaf_vector":"1"}},{"base_weights":[2.3876827E-3,-5.5297315E-3,3.8361743E-2,-2.9490711E-2,6.3397805E-4,-4.811826E-3,1.4480591E-2,-9.628296E-3,-3.6621094E-4,7.7619557E-3,9.822369E-3,-4.4756415E-3,-1.7338515E-3,-1.9281176E-3,7.55539E-4,4.71433E-3,5.029297E-3,-7.743359E-4,-3.5142901E-4,1.9301606E-3,-5.825043E-4],"categories":[],"categories_nodes":[],"categories_segments":[],"categories_sizes":[],"default_left":[0,0,0,0,0,0,0,0,0,0,0,0,0,0,0,0,0,0,0,0,0],"id":24,"left_children":[1,3,-1,-1,5,7,9,11,13,-1,15,-1,-1,17,-1,19,-1,-1,-1,-1,-1],"loss_changes":[3.3493094E-2,1.8360674E-2,0E0,0E0,2.4072623E-3,4.8895396E-4,2.2348715E-4,1.3775937E-4,6.342858E-5,0E0,2.0464556E-4,0E0,0E0,1.4234647E-6,0E0,8.116412E-5,0E0,0E0,0E0,0E0,0E0],"parents":[2147483647,0,0,1,1,4,4,5,5,6,6,7,7,8,8,10,10,13,13,15,15],"right_children":[2,4,-1,-1,6,8,10,12,14,-1,16,-1,-1,18,-1,20,-1,-1,-1,-1,-1],"split_conditions":[1.5015326E0,-1.1052337E0,3.8361743E-2,-2.9490711E-2,1.0083606E0,-9.643274E-1,1.0788138E0,-1.0347805E0,7.26548E-1,7.7619557E-3,1.4310794E0,-4.4756415E-3,-1.7338515E-3,1E0,7.55539E-4,1.3606263E0,5.029297E-3,-7.743359E-4,-3.5142901E-4,1.9301606E-3,-5.825043E-4],"split_indices":[0,0,0,0,0,0,0,0,0,0,0,0,0,68,0,0,0,0,0,0,0],"split_type":[0,0,0,0,0,0,0,0,0,0,0,0,0,0,0,0,0,0,0,0,0],"sum_hessian":[3.2E1,3.1E1,1E0,1E0,3E1,2.2E1,8E0,1E1,1.2E1,1E0,7E0,3E0,7E0,8E0,4E0,5E0,2E0,3E0,5E0,4E0,1E0],"tree_param":{"num_deleted":"0","num_feature":"100","num_nodes":"21","size_leaf_vector":"1"}},{"base_weights":[2.1693201E-3,-4.5561492E-3,3.2607652E-2,-2.506714E-2,6.876607E-4,-3.6544385E-3,1.170773E-2,-3.468633E-3,-1.8901825E-3,6.5975194E-3,7.6732635E-3,-3.8774663E-3,4.8484802E-4,3.5247803E-3,4.023743E-3,-1.2529565E-3,-1.3303757E-4,-2.3612977E-4,5.7426456E-4,1.4669038E-3,-4.9495697E-4],"categories":[],"categories_nodes":[],"categories_segments":[],"categories_sizes":[],"default_left":[0,0,0,0,0,0,0,0,0,0,0,0,0,0,0,0,0,0,0,0,0],"id":25,"left_children":[1,3,-1,-1,5,7,9,-1,11,-1,13,15,17,19,-1,-1,-1,-1,-1,-1,-1],"loss_changes":[2.4136951E-2,1.3313975E-2,0E0,0E0,1.5261425E-3,2.9902204E-4,2.0466559E-4,0E0,9.6277174E-5,0E0,1.4319617E-4,9.444426E-6,1.9687472E-5,5.044439E-5,0E0,0E0,0E0,0E0,0E0,0E0,0E0],"parents":[2147483647,0,0,1,1,4,4,5,5,6,6,8,8,10,10,11,11,12,12,13,13],"right_children":[2,4,-1,-1,6,8,10,-1,12,-1,14,16,18,20,-1,-1,-1,-1,-1,-1,-1],"split_conditions":[1.5015326E0,-1.1052337E0,3.2607652E-2,-2.506714E-2,1.0083606E0,-1.0347805E0,1.0788138E0,-3.468633E-3,-2.5979596E-1,6.5975194E-3,1.4310794E0,1E0,7.26548E-1,1.3606263E0,4.023743E-3,-1.2529565E-3,-1.3303757E-4,-2.3612977E-4,5.7426456E-4,1.4669038E-3,-4.9495697E-4],"split_indices":[0,0,0,0,0,0,0,0,0,0,0,10,0,0,0,0,0,0,0,0,0],"split_type":[0,0,0,0,0,0,0,0,0,0,0,0,0,0,0,0,0,0,0,0,0],"sum_hessian":[3.2E1,3.1E1,1E0,1E0,3E1,2.2E1,8E0,3E0,1.9E1,1E0,7E0,1E1,9E0,5E0,2E0,9E0,1E0,5E0,4E0,4E0,1E0],"tree_param":{"num_deleted":"0","num_feature":"100","num_nodes":"21","size_leaf_vector":"1"}},{"base_weights":[1.9610722E-3,-3.7519038E-3,2.7716447E-2,-2.130704E-2,7.0922606E-4,-2.754626E-3,9.48249E-3,-2.6882172E-3,-1.3756752E-3,5.607605E-3,5.9947968E-3,-2.5895925E-3,7.688999E-4,2.6283264E-3,3.2188417E-3,-9.564082E-4,-2.983475E-4,-8.368492E-5,4.360199E-4,1.1144257E-3,-4.205704E-4],"categories":[],"categories_nodes":[],"categories_segments":[],"categories_sizes":[],"default_left":[0,0,0,0,0,0,0,0,0,0,0,0,0,0,0,0,0,0,0,0,0],"id":26,"left_children":[1,3,-1,-1,5,7,9,-1,11,-1,13,15,17,19,-1,-1,-1,-1,-1,-1,-1],"loss_changes":[1.7394686E-2,9.6538E-3,0E0,0E0,9.681886E-4,1.8450475E-4,1.7702515E-4,0E0,5.4057873E-5,0E0,9.931257E-5,9.238873E-6,6.143448E-6,3.1478972E-5,0E0,0E0,0E0,0E0,0E0,0E0,0E0],"parents":[2147483647,0,0,1,1,4,4,5,5,6,6,8,8,10,10,11,11,12,12,13,13],"right_children":[2,4,-1,-1,6,8,10,-1,12,-1,14,16,18,20,-1,-1,-1,-1,-1,-1,-1],"split_conditions":[1.5015326E0,-1.1052337E0,2.7716447E-2,-2.130704E-2,1.0083606E0,-1.0347805E0,1.0788138E0,-2.6882172E-3,-1.18889675E-1,5.607605E-3,1.4310794E0,1E0,7.26548E-1,1.3606263E0,3.2188417E-3,-9.564082E-4,-2.983475E-4,-8.368492E-5,4.360199E-4,1.1144257E-3,-4.205704E-4],"split_indices":[0,0,0,0,0,0,0,0,0,0,0,22,0,0,0,0,0,0,0,0,0],"split_type":[0,0,0,0,0,0,0,0,0,0,0,0,0,0,0,0,0,0,0,0,0],"sum_hessian":[3.2E1,3.1E1,1E0,1E0,3E1,2.2E1,8E0,3E0,1.9E1,1E0,7E0,1.2E1,7E0,5E0,2E0,8E0,4E0,3E0,4E0,4E0,1E0],"tree_param":{"num_deleted":"0","num_feature":"100","num_nodes":"21","size_leaf_vector":"1"}},{"base_weights":[1.7464956E-3,-3.1070113E-3,2.3558808E-2,-1.811099E-2,6.875992E-4,-2.0845248E-3,7.695516E-3,-2.0833255E-3,-1.0083199E-3,4.7664642E-3,4.685402E-3,-2.1507957E-3,3.4923555E-4,1.9556682E-3,2.5749207E-3,-8.0697204E-4,-2.897644E-4,-2.3446084E-4,2.8365E-4,8.470917E-4,-3.5762787E-4],"categories":[],"categories_nodes":[],"categories_segments":[],"categories_sizes":[],"default_left":[0,0,0,0,0,0,0,0,0,0,0,0,0,0,0,0,0,0,0,0,0],"id":27,"left_children":[1,3,-1,-1,5,7,9,-1,11,-1,13,15,17,19,-1,-1,-1,-1,-1,-1,-1],"loss_changes":[1.2541974E-2,6.99481E-3,0E0,0E0,6.182727E-4,1.1329335E-4,1.475059E-4,0E0,3.1770614E-5,0E0,6.833112E-5,4.4286753E-6,7.481332E-6,1.9759029E-5,0E0,0E0,0E0,0E0,0E0,0E0,0E0],"parents":[2147483647,0,0,1,1,4,4,5,5,6,6,8,8,10,10,11,11,12,12,13,13],"right_children":[2,4,-1,-1,6,8,10,-1,12,-1,14,16,18,20,-1,-1,-1,-1,-1,-1,-1],"split_conditions":[1.5015326E0,-1.1052337E0,2.3558808E-2,-1.811099E-2,1.0083606E0,-1.0347805E0,1.0788138E0,-2.0833255E-3,-2.5979596E-1,4.7664642E-3,1.4310794E0,1E0,1E0,1.3606263E0,2.5749207E-3,-8.0697204E-4,-2.897644E-4,-2.3446084E-4,2.8365E-4,8.470917E-4,-3.5762787E-4],"split_indices":[0,0,0,0,0,0,0,0,0,0,0,68,16,0,0,0,0,0,0,0,0],"split_type":[0,0,0,0,0,0,0,0,0,0,0,0,0,0,0,0,0,0,0,0,0],"sum_hessian":[3.2E1,3.1E1,1E0,1E0,3E1,2.2E1,8E0,3E0,1.9E1,1E0,7E0,1E1,9E0,5E0,2E0,6E0,4E0,3E0,6E0,4E0,1E0],"tree_param":{"num_deleted":"0","num_feature":"100","num_nodes":"21","size_leaf_vector":"1"}},{"base_weights":[1.5302137E-3,-2.5938153E-3,2.0024873E-2,-1.5394307E-2,6.331167E-4,-1.595041E-3,6.256951E-3,-1.6144753E-3,-7.5798034E-4,4.0512085E-3,3.663063E-3,-5.399704E-4,8.662542E-5,1.4508566E-3,2.0599365E-3,-3.789425E-4,2.0306905E-4,-3.599167E-4,6.6627504E-4],"categories":[],"categories_nodes":[],"categories_segments":[],"categories_sizes":[],"default_left":[0,0,0,0,0,0,0,0,0,0,0,0,0,0,0,0,0,0,0],"id":28,"left_children":[1,3,-1,-1,5,7,9,-1,11,-1,13,-1,15,17,-1,-1,-1,-1,-1],"loss_changes":[9.049032E-3,5.06346E-3,0E0,0E0,3.9843458E-4,6.88209E-5,1.1971686E-4,0E0,1.7756167E-5,0E0,4.673028E-5,0E0,1.0415764E-5,1.4911116E-5,0E0,0E0,0E0,0E0,0E0],"parents":[2147483647,0,0,1,1,4,4,5,5,6,6,8,8,10,10,12,12,13,13],"right_children":[2,4,-1,-1,6,8,10,-1,12,-1,14,-1,16,18,-1,-1,-1,-1,-1],"split_conditions":[1.5015326E0,-1.1052337E0,2.0024873E-2,-1.5394307E-2,1.0083606E0,-1.0347805E0,1.0788138E0,-1.6144753E-3,1E0,4.0512085E-3,1.4310794E0,-5.399704E-4,1E0,1.21972E0,2.0599365E-3,-3.789425E-4,2.0306905E-4,-3.599167E-4,6.6627504E-4],"split_indices":[0,0,0,0,0,0,0,0,92,0,0,0,68,0,0,0,0,0,0],"split_type":[0,0,0,0,0,0,0,0,0,0,0,0,0,0,0,0,0,0,0],"sum_hessian":[3.2E1,3.1E1,1E0,1E0,3E1,2.2E1,8E0,3E0,1.9E1,1E0,7E0,8E0,1.1E1,5E0,2E0,3E0,8E0,1E0,4E0],"tree_param":{"num_deleted":"0","num_feature":"100","num_nodes":"19","size_leaf_vector":"1"}},{"base_weights":[1.3354041E-3,-2.1689832E-3,1.7021371E-2,-1.3085175E-2,5.750656E-4,-1.2175104E-3,5.092197E-3,-1.251197E-3,-5.660057E-4,3.4435273E-3,2.8591156E-3,-1.1375134E-3,4.3344498E-4,1.0655721E-3,1.6479493E-3,-4.675729E-4,-1.6618456E-4,-9.155274E-6,2.1537782E-4,5.451965E-4,-4.0397645E-4],"categories":[],"categories_nodes":[],"categories_segments":[],"categories_sizes":[],"default_left":[0,0,0,0,0,0,0,0,0,0,0,0,0,0,0,0,0,0,0,0,0],"id":29,"left_children":[1,3,-1,-1,5,7,9,-1,11,-1,13,15,17,19,-1,-1,-1,-1,-1,-1,-1],"loss_changes":[6.5300735E-3,3.6646368E-3,0E0,0E0,2.5721616E-4,4.189112E-5,9.5530544E-5,0E0,1.1916924E-5,0E0,3.194088E-5,2.3309567E-6,1.0778178E-6,1.3327228E-5,0E0,0E0,0E0,0E0,0E0,0E0,0E0],"parents":[2147483647,0,0,1,1,4,4,5,5,6,6,8,8,10,10,11,11,12,12,13,13],"right_children":[2,4,-1,-1,6,8,10,-1,12,-1,14,16,18,20,-1,-1,-1,-1,-1,-1,-1],"split_conditions":[1.5015326E0,-1.1052337E0,1.7021371E-2,-1.3085175E-2,1.0083606E0,-1.0347805E0,1.0788138E0,-1.251197E-3,-1.18889675E-1,3.4435273E-3,1.4310794E0,1E0,7.26548E-1,1.3606263E0,1.6479493E-3,-4.675729E-4,-1.6618456E-4,-9.155274E-6,2.1537782E-4,5.451965E-4,-4.0397645E-4],"split_indices":[0,0,0,0,0,0,0,0,0,0,0,68,0,0,0,0,0,0,0,0,0],"split_type":[0,0,0,0,0,0,0,0,0,0,0,0,0,0,0,0,0,0,0,0,0],"sum_hessian":[3.2E1,3.1E1,1E0,1E0,3E1,2.2E1,8E0,3E0,1.9E1,1E0,7E0,1.2E1,7E0,5E0,2E0,6E0,6E0,3E0,4E0,4E0,1E0],"tree_param":{"num_deleted":"0","num_feature":"100","num_nodes":"21","size_leaf_vector":"1"}},{"base_weights":[1.1618643E-3,-1.8160343E-3,1.4468194E-2,-1.112237E-2,5.172914E-4,-9.2502264E-4,4.1457284E-3,-9.696722E-4,-4.173279E-4,2.9268265E-3,2.2249222E-3,-2.846458E-4,2.090454E-4,-3.8795473E-4,2.912249E-3,-1.9969941E-4,1.5327931E-4,4.3212893E-4,1.3183594E-3],"categories":[],"categories_nodes":[],"categories_segments":[],"categories_sizes":[],"default_left":[0,0,0,0,0,0,0,0,0,0,0,0,0,0,0,0,0,0,0],"id":30,"left_children":[1,3,-1,-1,5,7,9,-1,11,-1,13,-1,15,-1,17,-1,-1,-1,-1],"loss_changes":[4.712735E-3,2.6518067E-3,0E0,0E0,1.660686E-4,2.5592435E-5,7.5281176E-5,0E0,6.856586E-6,0E0,2.3110762E-5,0E0,2.9807325E-6,0E0,8.941552E-6,0E0,0E0,0E0,0E0],"parents":[2147483647,0,0,1,1,4,4,5,5,6,6,8,8,10,10,12,12,14,14],"right_children":[2,4,-1,-1,6,8,10,-1,12,-1,14,-1,16,-1,18,-1,-1,-1,-1],"split_conditions":[1.5015326E0,-1.1052337E0,1.4468194E-2,-1.112237E-2,1.0083606E0,-1.0347805E0,1.0788138E0,-9.696722E-4,-2.5979596E-1,2.9268265E-3,1.21972E0,-2.846458E-4,1E0,-3.8795473E-4,1.4310794E0,-1.9969941E-4,1.5327931E-4,4.3212893E-4,1.3183594E-3],"split_indices":[0,0,0,0,0,0,0,0,0,0,0,0,22,0,0,0,0,0,0],"split_type":[0,0,0,0,0,0,0,0,0,0,0,0,0,0,0,0,0,0,0],"sum_hessian":[3.2E1,3.1E1,1E0,1E0,3E1,2.2E1,8E0,3E0,1.9E1,1E0,7E0,1E1,9E0,1E0,6E0,2E0,7E0,4E0,2E0],"tree_param":{"num_deleted":"0","num_feature":"100","num_nodes":"19","size_leaf_vector":"1"}},{"base_weights":[1.0054039E-3,-1.5252233E-3,1.2297821E-2,-9.453964E-3,4.5868658E-4,-7.039775E-4,3.378974E-3,-7.514477E-4,-3.0860901E-4,2.4879456E-3,1.7280579E-3,-6.229694E-4,7.224083E-5,-3.2958985E-4,2.2888184E-3,-2.7433122E-4,-7.275173E-5,3.2867433E-4,1.0543823E-3],"categories":[],"categories_nodes":[],"categories_segments":[],"categories_sizes":[],"default_left":[0,0,0,0,0,0,0,0,0,0,0,0,0,0,0,0,0,0,0],"id":31,"left_children":[1,3,-1,-1,5,7,9,-1,11,-1,13,15,-1,-1,17,-1,-1,-1,-1],"loss_changes":[3.401893E-3,1.9182458E-3,0E0,0E0,1.0763344E-4,1.5602956E-5,5.8685015E-5,0E0,3.6042786E-6,0E0,1.5195343E-5,1.2198525E-6,0E0,0E0,6.3880652E-6,0E0,0E0,0E0,0E0],"parents":[2147483647,0,0,1,1,4,4,5,5,6,6,8,8,10,10,11,11,14,14],"right_children":[2,4,-1,-1,6,8,10,-1,12,-1,14,16,-1,-1,18,-1,-1,-1,-1],"split_conditions":[1.5015326E0,-1.1052337E0,1.2297821E-2,-9.453964E-3,1.0083606E0,-1.0347805E0,1.0788138E0,-7.514477E-4,-1.18889675E-1,2.4879456E-3,1.21972E0,1E0,7.224083E-5,-3.2958985E-4,1.4310794E0,-2.7433122E-4,-7.275173E-5,3.2867433E-4,1.0543823E-3],"split_indices":[0,0,0,0,0,0,0,0,0,0,0,68,0,0,0,0,0,0,0],"split_type":[0,0,0,0,0,0,0,0,0,0,0,0,0,0,0,0,0,0,0],"sum_hessian":[3.2E1,3.1E1,1E0,1E0,3E1,2.2E1,8E0,3E0,1.9E1,1E0,7E0,1.2E1,7E0,1E0,6E0,6E0,6E0,4E0,2E0],"tree_param":{"num_deleted":"0","num_feature":"100","num_nodes":"19","size_leaf_vector":"1"}},{"base_weights":[8.6625415E-4,-1.2843907E-3,1.0453034E-2,-8.035898E-3,4.023275E-4,-5.374577E-4,2.7592976E-3,-5.8236124E-4,-2.2983551E-4,2.1148683E-3,1.3418198E-3,-1.70002E-4,9.727478E-5,3.827413E-4,8.43811E-4,-2.48909E-4,1.6458036E-4,3.2066347E-4,-4.571915E-4],"categories":[],"categories_nodes":[],"categories_segments":[],"categories_sizes":[],"default_left":[0,0,0,0,0,0,0,0,0,0,0,0,0,0,0,0,0,0,0],"id":32,"left_children":[1,3,-1,-1,5,7,9,-1,11,-1,13,-1,15,17,-1,-1,-1,-1,-1],"loss_changes":[2.456157E-3,1.3872434E-3,0E0,0E0,7.0149414E-5,9.485782E-6,4.5272936E-5,0E0,2.2587851E-6,0E0,1.0209005E-5,0E0,5.0572057E-6,9.4785355E-6,0E0,0E0,0E0,0E0,0E0],"parents":[2147483647,0,0,1,1,4,4,5,5,6,6,8,8,10,10,12,12,13,13],"right_children":[2,4,-1,-1,6,8,10,-1,12,-1,14,-1,16,18,-1,-1,-1,-1,-1],"split_conditions":[1.5015326E0,-1.1052337E0,1.0453034E-2,-8.035898E-3,1.0083606E0,-1.0347805E0,1.0788138E0,-5.8236124E-4,1E0,2.1148683E-3,1.4310794E0,-1.70002E-4,1E0,1.3606263E0,8.43811E-4,-2.48909E-4,1.6458036E-4,3.2066347E-4,-4.571915E-4],"split_indices":[0,0,0,0,0,0,0,0,22,0,0,0,68,0,0,0,0,0,0],"split_type":[0,0,0,0,0,0,0,0,0,0,0,0,0,0,0,0,0,0,0],"sum_hessian":[3.2E1,3.1E1,1E0,1E0,3E1,2.2E1,8E0,3E0,1.9E1,1E0,7E0,9E0,1E1,5E0,2E0,3E0,7E0,4E0,1E0],"tree_param":{"num_deleted":"0","num_feature":"100","num_nodes":"19","size_leaf_vector":"1"}},{"base_weights":[7.3993567E-4,-1.0880232E-3,8.885194E-3,-6.8305493E-3,3.4581462E-4,-4.1260925E-4,2.2455852E-3,-4.5125486E-4,-1.736641E-4,1.7978669E-3,1.0280609E-3,-3.7706815E-4,5.3572658E-5,-3.2844546E-4,1.4877319E-3,-5.0093913E-5,-3.0651095E-4,1.6250611E-4,7.7056885E-4],"categories":[],"categories_nodes":[],"categories_segments":[],"categories_sizes":[],"default_left":[0,0,0,0,0,0,0,0,0,0,0,0,0,0,0,0,0,0,0],"id":33,"left_children":[1,3,-1,-1,5,7,9,-1,11,-1,13,15,-1,-1,17,-1,-1,-1,-1],"loss_changes":[1.7741838E-3,1.0026348E-3,0E0,0E0,4.559232E-5,5.7377806E-6,3.4900848E-5,0E0,1.5002745E-6,0E0,9.435404E-6,1.5899908E-6,0E0,0E0,5.7662455E-6,0E0,0E0,0E0,0E0],"parents":[2147483647,0,0,1,1,4,4,5,5,6,6,8,8,10,10,11,11,14,14],"right_children":[2,4,-1,-1,6,8,10,-1,12,-1,14,16,-1,-1,18,-1,-1,-1,-1],"split_conditions":[1.5015326E0,-1.1052337E0,8.885194E-3,-6.8305493E-3,1.0083606E0,-1.0347805E0,1.0788138E0,-4.5125486E-4,-1.18889675E-1,1.7978669E-3,1.21972E0,1E0,5.3572658E-5,-3.2844546E-4,1E0,-5.0093913E-5,-3.0651095E-4,1.6250611E-4,7.7056885E-4],"split_indices":[0,0,0,0,0,0,0,0,0,0,0,50,0,0,8,0,0,0,0],"split_type":[0,0,0,0,0,0,0,0,0,0,0,0,0,0,0,0,0,0,0],"sum_hessian":[3.2E1,3.1E1,1E0,1E0,3E1,2.2E1,8E0,3E0,1.9E1,1E0,7E0,1.2E1,7E0,1E0,6E0,1E1,2E0,4E0,2E0],"tree_param":{"num_deleted":"0","num_feature":"100","num_nodes":"19","size_leaf_vector":"1"}},{"base_weights":[6.299163E-4,-9.238422E-4,7.5525288E-3,-5.806017E-3,2.9496223E-4,-3.217614E-4,1.8382602E-3,-2.6199818E-4,-2.5868416E-5,1.5283586E-3,7.944107E-4,-3.6948067E-4,2.1724701E-4,-2.7923586E-4,1.1738369E-3,8.106233E-6,-4.1227342E-4,-1.2607574E-4,1.2874603E-4,1.2313844E-4,6.164551E-4],"categories":[],"categories_nodes":[],"categories_segments":[],"categories_sizes":[],"default_left":[0,0,0,0,0,0,0,0,0,0,0,0,0,0,0,0,0,0,0,0,0],"id":34,"left_children":[1,3,-1,-1,5,7,9,-1,11,-1,13,15,17,-1,19,-1,-1,-1,-1,-1,-1],"loss_changes":[1.281788E-3,7.24493E-4,0E0,0E0,3.0096919E-5,3.7311115E-6,2.6544338E-5,0E0,1.4168676E-6,0E0,6.329269E-6,2.825866E-6,1.5312552E-6,0E0,3.864371E-6,0E0,0E0,0E0,0E0,0E0,0E0],"parents":[2147483647,0,0,1,1,4,4,5,5,6,6,8,8,10,10,11,11,12,12,14,14],"right_children":[2,4,-1,-1,6,8,10,-1,12,-1,14,16,18,-1,20,-1,-1,-1,-1,-1,-1],"split_conditions":[1.5015326E0,-1.1052337E0,7.5525288E-3,-5.806017E-3,1.0083606E0,1E0,1.0788138E0,-2.6199818E-4,1E0,1.5283586E-3,1.21972E0,1E0,1E0,-2.7923586E-4,1E0,8.106233E-6,-4.1227342E-4,-1.2607574E-4,1.2874603E-4,1.2313844E-4,6.164551E-4],"split_indices":[0,0,0,0,0,26,0,0,68,0,0,8,22,0,8,0,0,0,0,0,0],"split_type":[0,0,0,0,0,0,0,0,0,0,0,0,0,0,0,0,0,0,0,0,0],"sum_hessian":[3.2E1,3.1E1,1E0,1E0,3E1,2.2E1,8E0,7E0,1.5E1,1E0,7E0,6E0,9E0,1E0,6E0,5E0,1E0,2E0,7E0,4E0,2E0],"tree_param":{"num_deleted":"0","num_feature":"100","num_nodes":"21","size_leaf_vector":"1"}},{"base_weights":[5.33942E-4,-7.867813E-4,6.4195637E-3,-4.9351216E-3,2.491551E-4,-2.5413348E-4,1.5076532E-3,-2.9075146E-4,-2.9525758E-5,1.2989044E-3,6.136894E-4,-2.7974447E-5,5.0773623E-4,1.6250611E-4,-4.3144228E-4],"categories":[],"categories_nodes":[],"categories_segments":[],"categories_sizes":[],"default_left":[0,0,0,0,0,0,0,0,0,0,0,0,0,0,0],"id":35,"left_children":[1,3,-1,-1,5,7,9,-1,-1,-1,11,13,-1,-1,-1],"loss_changes":[9.261961E-4,5.233473E-4,0E0,0E0,2.0018164E-5,2.4654726E-6,2.0048035E-5,0E0,0E0,0E0,5.5849796E-6,5.598927E-6,0E0,0E0,0E0],"parents":[2147483647,0,0,1,1,4,4,5,5,6,6,10,10,11,11],"right_children":[2,4,-1,-1,6,8,10,-1,-1,-1,12,14,-1,-1,-1],"split_conditions":[1.5015326E0,-1.1052337E0,6.4195637E-3,-4.9351216E-3,1.0083606E0,-1.0347805E0,1.0788138E0,-2.9075146E-4,-2.9525758E-5,1.2989044E-3,1.4310794E0,1.3606263E0,5.0773623E-4,1.6250611E-4,-4.3144228E-4],"split_indices":[0,0,0,0,0,0,0,0,0,0,0,0,0,0,0],"split_type":[0,0,0,0,0,0,0,0,0,0,0,0,0,0,0],"sum_hessian":[3.2E1,3.1E1,1E0,1E0,3E1,2.2E1,8E0,3E0,1.9E1,1E0,7E0,5E0,2E0,4E0,1E0],"tree_param":{"num_deleted":"0","num_feature":"100","num_nodes":"15","size_leaf_vector":"1"}},{"base_weights":[4.5527835E-4,-6.67274E-4,5.456543E-3,-4.194832E-3,2.133154E-4,-1.9214464E-4,1.2257894E-3,-1.3868159E-4,5.1204974E-5,1.1043549E-3,4.5871735E-4,-3.883362E-4,8.691152E-5,-2.6206972E-4,7.738386E-4,2.7465821E-5,-3.4618378E-4,6.958008E-5,4.2572024E-4],"categories":[],"categories_nodes":[],"categories_segments":[],"categories_sizes":[],"default_left":[0,0,0,0,0,0,0,0,0,0,0,0,0,0,0,0,0,0,0],"id":36,"left_children":[1,3,-1,-1,5,7,9,-1,11,-1,13,15,-1,-1,17,-1,-1,-1,-1],"loss_changes":[6.6904933E-4,3.781983E-4,0E0,0E0,1.2961579E-5,1.5355843E-6,1.526255E-5,0E0,1.4753008E-6,0E0,4.0346445E-6,1.942685E-6,0E0,0E0,2.1184392E-6,0E0,0E0,0E0,0E0],"parents":[2147483647,0,0,1,1,4,4,5,5,6,6,8,8,10,10,11,11,14,14],"right_children":[2,4,-1,-1,6,8,10,-1,12,-1,14,16,-1,-1,18,-1,-1,-1,-1],"split_conditions":[1.5015326E0,-1.1052337E0,5.456543E-3,-4.194832E-3,1.0083606E0,1E0,1.0788138E0,-1.3868159E-4,1E0,1.1043549E-3,1.21972E0,1E0,8.691152E-5,-2.6206972E-4,1E0,2.7465821E-5,-3.4618378E-4,6.958008E-5,4.2572024E-4],"split_indices":[0,0,0,0,0,58,0,0,68,0,0,8,0,0,8,0,0,0,0],"split_type":[0,0,0,0,0,0,0,0,0,0,0,0,0,0,0,0,0,0,0],"sum_hessian":[3.2E1,3.1E1,1E0,1E0,3E1,2.2E1,8E0,1E1,1.2E1,1E0,7E0,4E0,8E0,1E0,6E0,3E0,1E0,4E0,2E0],"tree_param":{"num_deleted":"0","num_feature":"100","num_nodes":"19","size_leaf_vector":"1"}},{"base_weights":[3.861514E-4,-5.6809187E-4,4.6382905E-3,-3.56555E-3,1.803675E-4,-1.5080493E-4,1.0066562E-3,-1.9419195E-4,-1.3189316E-5,9.384156E-4,3.504753E-4,-1.2715657E-4,3.566742E-4,1.0505677E-4,-3.7708285E-4],"categories":[],"categories_nodes":[],"categories_segments":[],"categories_sizes":[],"default_left":[0,0,0,0,0,0,0,0,0,0,0,0,0,0,0],"id":37,"left_children":[1,3,-1,-1,5,7,9,-1,-1,-1,11,13,-1,-1,-1],"loss_changes":[4.8348962E-4,2.7319553E-4,0E0,0E0,8.634774E-6,1.191611E-6,1.1431868E-5,0E0,0E0,0E0,3.3548986E-6,3.6759598E-6,0E0,0E0,0E0],"parents":[2147483647,0,0,1,1,4,4,5,5,6,6,10,10,11,11],"right_children":[2,4,-1,-1,6,8,10,-1,-1,-1,12,14,-1,-1,-1],"split_conditions":[1.5015326E0,-1.1052337E0,4.6382905E-3,-3.56555E-3,1.0083606E0,-1.0347805E0,1.0788138E0,-1.9419195E-4,-1.3189316E-5,9.384156E-4,1.4310794E0,1.3606263E0,3.566742E-4,1.0505677E-4,-3.7708285E-4],"split_indices":[0,0,0,0,0,0,0,0,0,0,0,0,0,0,0],"split_type":[0,0,0,0,0,0,0,0,0,0,0,0,0,0,0],"sum_hessian":[3.2E1,3.1E1,1E0,1E0,3E1,2.2E1,8E0,3E0,1.9E1,1E0,7E0,5E0,2E0,4E0,1E0],"tree_param":{"num_deleted":"0","num_feature":"100","num_nodes":"15","size_leaf_vector":"1"}},{"base_weights":[3.272259E-4,-4.839003E-4,3.9424896E-3,-3.0306817E-3,1.5224949E-4,-3.441935E-5,8.1761676E-4,7.976532E-4,2.5510788E-4,-2.3860933E-4,5.187988E-4,4.1656498E-5,2.937317E-4],"categories":[],"categories_nodes":[],"categories_segments":[],"categories_sizes":[],"default_left":[0,0,0,0,0,0,0,0,0,0,0,0,0],"id":38,"left_children":[1,3,-1,-1,5,-1,7,-1,9,-1,11,-1,-1],"loss_changes":[3.4936456E-4,1.9733727E-4,0E0,0E0,5.600652E-6,0E0,8.643068E-6,0E0,2.6286343E-6,0E0,1.0882814E-6,0E0,0E0],"parents":[2147483647,0,0,1,1,4,4,6,6,8,8,10,10],"right_children":[2,4,-1,-1,6,-1,8,-1,10,-1,12,-1,-1],"split_conditions":[1.5015326E0,-1.1052337E0,3.9424896E-3,-3.0306817E-3,1.0083606E0,-3.441935E-5,1.0788138E0,7.976532E-4,1.21972E0,-2.3860933E-4,1E0,4.1656498E-5,2.937317E-4],"split_indices":[0,0,0,0,0,0,0,0,0,0,8,0,0],"split_type":[0,0,0,0,0,0,0,0,0,0,0,0,0],"sum_hessian":[3.2E1,3.1E1,1E0,1E0,3E1,2.2E1,8E0,1E0,7E0,1E0,6E0,4E0,2E0],"tree_param":{"num_deleted":"0","num_feature":"100","num_nodes":"13","size_leaf_vector":"1"}},{"base_weights":[2.826633E-4,-4.0659308E-4,3.3508302E-3,-2.5760652E-3,1.342835E-4,-3.9925577E-5,5.6870776E-4,6.7806244E-4,2.0946156E-4,-2.3735895E-5,2.5177002E-4,7.367134E-5,-3.2672883E-4],"categories":[],"categories_nodes":[],"categories_segments":[],"categories_sizes":[],"default_left":[0,0,0,0,0,0,0,0,0,0,0,0,0],"id":39,"left_children":[1,3,-1,-1,5,-1,7,-1,9,11,-1,-1,-1],"loss_changes":[2.52166E-4,1.4273796E-4,0E0,0E0,3.6763827E-6,0E0,6.818554E-6,0E0,1.6353929E-6,2.8496315E-6,0E0,0E0,0E0],"parents":[2147483647,0,0,1,1,4,4,6,6,8,8,9,9],"right_children":[2,4,-1,-1,6,-1,8,-1,10,12,-1,-1,-1],"split_conditions":[1.5015326E0,-1.1052337E0,3.3508302E-3,-2.5760652E-3,7.970012E-1,-3.9925577E-5,1E0,6.7806244E-4,1.4310794E0,1.3606263E0,2.5177002E-4,7.367134E-5,-3.2672883E-4],"split_indices":[0,0,0,0,0,0,18,0,0,0,0,0,0],"split_type":[0,0,0,0,0,0,0,0,0,0,0,0,0],"sum_hessian":[3.2E1,3.1E1,1E0,1E0,3E1,1.9E1,1.1E1,1E0,1E1,8E0,2E0,7E0,1E0],"tree_param":{"num_deleted":"0","num_feature":"100","num_nodes":"13","size_leaf_vector":"1"}},{"base_weights":[2.4096172E-4,-3.4493208E-4,2.8484345E-3,-2.189684E-3,1.1484085E-4,-1.7501998E-5,5.44654E-4,5.7621003E-4,1.3256073E-4,-2.1343231E-4,1.0643006E-4],"categories":[],"categories_nodes":[],"categories_segments":[],"categories_sizes":[],"default_left":[0,0,0,0,0,0,0,0,0,0,0],"id":40,"left_children":[1,3,-1,-1,5,-1,7,-1,9,-1,-1],"loss_changes":[1.8219299E-4,1.03150785E-4,0E0,0E0,2.3392724E-6,0E0,4.8489246E-6,0E0,1.7527345E-6,0E0,0E0],"parents":[2147483647,0,0,1,1,4,4,6,6,8,8],"right_children":[2,4,-1,-1,6,-1,8,-1,10,-1,-1],"split_conditions":[1.5015326E0,-1.1052337E0,2.8484345E-3,-2.189684E-3,1.0083606E0,-1.7501998E-5,1.0788138E0,5.7621003E-4,1.21972E0,-2.1343231E-4,1.0643006E-4],"split_indices":[0,0,0,0,0,0,0,0,0,0,0],"split_type":[0,0,0,0,0,0,0,0,0,0,0],"sum_hessian":[3.2E1,3.1E1,1E0,1E0,3E1,2.2E1,8E0,1E0,7E0,1E0,6E0],"tree_param":{"num_deleted":"0","num_feature":"100","num_nodes":"11","size_leaf_vector":"1"}},{"base_weights":[2.0223676E-4,-2.9581785E-4,2.4209977E-3,-1.8612385E-3,9.4905976E-5,-2.3617746E-5,3.7638345E-4,4.8980716E-4,3.41242E-5],"categories":[],"categories_nodes":[],"categories_segments":[],"categories_sizes":[],"default_left":[0,0,0,0,0,0,0,0,0],"id":41,"left_children":[1,3,-1,-1,5,-1,7,-1,-1],"loss_changes":[1.3170012E-4,7.446138E-5,0E0,0E0,1.5447077E-6,0E0,3.773705E-6,0E0,0E0],"parents":[2147483647,0,0,1,1,4,4,6,6],"right_children":[2,4,-1,-1,6,-1,8,-1,-1],"split_conditions":[1.5015326E0,-1.1052337E0,2.4209977E-3,-1.8612385E-3,7.970012E-1,-2.3617746E-5,1E0,4.8980716E-4,3.41242E-5],"split_indices":[0,0,0,0,0,0,18,0,0],"split_type":[0,0,0,0,0,0,0,0,0],"sum_hessian":[3.2E1,3.1E1,1E0,1E0,3E1,1.9E1,1.1E1,1E0,1E1],"tree_param":{"num_deleted":"0","num_feature":"100","num_nodes":"9","size_leaf_vector":"1"}},{"base_weights":[1.7345313E-4,-2.4980307E-4,2.0576478E-3,-1.5820027E-3,8.235439E-5,-1.244545E-4,1.5044212E-4,3.6777768E-4,-6.243388E-5,1.8244523E-4,4.1656496E-4,-2.0526006E-4,1.7318726E-4,-7.4672703E-6,1.9655228E-4,-1.807213E-4,3.5476685E-5],"categories":[],"categories_nodes":[],"categories_segments":[],"categories_sizes":[],"default_left":[0,0,0,0,0,0,0,0,0,0,0,0,0,0,0,0,0],"id":42,"left_children":[1,3,-1,-1,5,-1,7,9,11,13,-1,15,-1,-1,-1,-1,-1],"loss_changes":[9.509099E-5,5.3829674E-5,0E0,0E0,1.1118663E-6,0E0,1.3183965E-6,2.3952164E-6,1.4890363E-6,1.2904874E-6,0E0,1.7415086E-6,0E0,0E0,0E0,0E0,0E0],"parents":[2147483647,0,0,1,1,4,4,6,6,7,7,8,8,9,9,11,11],"right_children":[2,4,-1,-1,6,-1,8,10,12,14,-1,16,-1,-1,-1,-1,-1],"split_conditions":[1.5015326E0,-1.1052337E0,2.0576478E-3,-1.5820027E-3,-1.0347805E0,-1.244545E-4,1E0,7.26548E-1,1.4310794E0,1E0,4.1656496E-4,1E0,1.7318726E-4,-7.4672703E-6,1.9655228E-4,-1.807213E-4,3.5476685E-5],"split_indices":[0,0,0,0,0,0,86,0,0,22,0,70,0,0,0,0,0],"split_type":[0,0,0,0,0,0,0,0,0,0,0,0,0,0,0,0,0],"sum_hessian":[3.2E1,3.1E1,1E0,1E0,3E1,3E0,2.7E1,1.3E1,1.4E1,1.2E1,1E0,1.2E1,2E0,9E0,3E0,5E0,7E0],"tree_param":{"num_deleted":"0","num_feature":"100","num_nodes":"17","size_leaf_vector":"1"}},{"base_weights":[1.5151862E-4,-2.0816922E-4,1.7492295E-3,-1.3446808E-3,2.2288294E-5],"categories":[],"categories_nodes":[],"categories_segments":[],"categories_sizes":[],"default_left":[0,0,0,0,0],"id":43,"left_children":[1,3,-1,-1,-1],"loss_changes":[6.862473E-5,3.896588E-5,0E0,0E0,0E0],"parents":[2147483647,0,0,1,1],"right_children":[2,4,-1,-1,-1],"split_conditions":[1.5015326E0,-1.1052337E0,1.7492295E-3,-1.3446808E-3,2.2288294E-5],"split_indices":[0,0,0,0,0],"split_type":[0,0,0,0,0],"sum_hessian":[3.2E1,3.1E1,1E0,1E0,3E1],"tree_param":{"num_deleted":"0","num_feature":"100","num_nodes":"5","size_leaf_vector":"1"}},{"base_weights":[1.186313E-4,-1.873672E-4,1.4865876E-3,-1.1429787E-3,1.5717169E-5],"categories":[],"categories_nodes":[],"categories_segments":[],"categories_sizes":[],"default_left":[0,0,0,0,0],"id":44,"left_children":[1,3,-1,-1,-1],"loss_changes":[4.976882E-5,2.7992799E-5,0E0,0E0,0E0],"parents":[2147483647,0,0,1,1],"right_children":[2,4,-1,-1,-1],"split_conditions":[1.5015326E0,-1.1052337E0,1.4865876E-3,-1.1429787E-3,1.5717169E-5],"split_indices":[0,0,0,0,0],"split_type":[0,0,0,0,0],"sum_hessian":[3.2E1,3.1E1,1E0,1E0,3E1],"tree_param":{"num_deleted":"0","num_feature":"100","num_nodes":"5","size_leaf_vector":"1"}},{"base_weights":[9.429816E-5,-1.6596913E-4,1.2634278E-3,-9.7160344E-4,1.1287198E-5],"categories":[],"categories_nodes":[],"categories_segments":[],"categories_sizes":[],"default_left":[0,0,0,0,0],"id":45,"left_children":[1,3,-1,-1,-1],"loss_changes":[3.606024E-5,2.014049E-5,0E0,0E0,0E0],"parents":[2147483647,0,0,1,1],"right_children":[2,4,-1,-1,-1],"split_conditions":[1.5015326E0,-1.1052337E0,1.2634278E-3,-9.7160344E-4,1.1287198E-5],"split_indices":[0,0,0,0,0],"split_type":[0,0,0,0,0],"sum_hessian":[3.2E1,3.1E1,1E0,1E0,3E1],"tree_param":{"num_deleted":"0","num_feature":"100","num_nodes":"5","size_leaf_vector":"1"}},{"base_weights":[7.508018E-5,-1.463294E-4,1.0740281E-3,-8.258343E-4,7.964719E-6],"categories":[],"categories_nodes":[],"categories_segments":[],"categories_sizes":[],"default_left":[0,0,0,0,0],"id":46,"left_children":[1,3,-1,-1,-1],"loss_changes":[2.6133308E-5,1.4492262E-5,0E0,0E0,0E0],"parents":[2147483647,0,0,1,1],"right_children":[2,4,-1,-1,-1],"split_conditions":[1.5015326E0,-1.1052337E0,1.0740281E-3,-8.258343E-4,7.964719E-6],"split_indices":[0,0,0,0,0],"split_type":[0,0,0,0,0],"sum_hessian":[3.2E1,3.1E1,1E0,1E0,3E1],"tree_param":{"num_deleted":"0","num_feature":"100","num_nodes":"5","size_leaf_vector":"1"}},{"base_weights":[6.057277E-5,-1.2767315E-4,9.126664E-4,-7.01952E-4,5.7497336E-6],"categories":[],"categories_nodes":[],"categories_segments":[],"categories_sizes":[],"default_left":[0,0,0,0,0],"id":47,"left_children":[1,3,-1,-1,-1],"loss_changes":[1.8910752E-5,1.0439475E-5,0E0,0E0,0E0],"parents":[2147483647,0,0,1,1],"right_children":[2,4,-1,-1,-1],"split_conditions":[1.5015326E0,-1.1052337E0,9.126664E-4,-7.01952E-4,5.7497336E-6],"split_indices":[0,0,0,0,0],"split_type":[0,0,0,0,0],"sum_hessian":[3.2E1,3.1E1,1E0,1E0,3E1],"tree_param":{"num_deleted":"0","num_feature":"100","num_nodes":"5","size_leaf_vector":"1"}},{"base_weights":[4.83195E-5,-1.1181831E-4,7.7590946E-4,-5.9666636E-4,3.866996E-6],"categories":[],"categories_nodes":[],"categories_segments":[],"categories_sizes":[],"default_left":[0,0,0,0,0],"id":48,"left_children":[1,3,-1,-1,-1],"loss_changes":[1.3701624E-5,7.5163925E-6,0E0,0E0,0E0],"parents":[2147483647,0,0,1,1],"right_children":[2,4,-1,-1,-1],"split_conditions":[1.5015326E0,-1.1052337E0,7.7590946E-4,-5.9666636E-4,3.866996E-6],"split_indices":[0,0,0,0,0],"split_type":[0,0,0,0,0],"sum_hessian":[3.2E1,3.1E1,1E0,1E0,3E1],"tree_param":{"num_deleted":"0","num_feature":"100","num_nodes":"5","size_leaf_vector":"1"}},{"base_weights":[3.9476337E-5,-9.673834E-5,6.5975194E-4,-5.071163E-4,2.7595029E-6],"categories":[],"categories_nodes":[],"categories_segments":[],"categories_sizes":[],"default_left":[0,0,0,0,0],"id":49,"left_children":[1,3,-1,-1,-1],"loss_changes":[9.920763E-6,5.4179786E-6,0E0,0E0,0E0],"parents":[2147483647,0,0,1,1],"right_children":[2,4,-1,-1,-1],"split_conditions":[1.5015326E0,-1.1052337E0,6.5975194E-4,-5.071163E-4,2.7595029E-6],"split_indices":[0,0,0,0,0],"split_type":[0,0,0,0,0],"sum_hessian":[3.2E1,3.1E1,1E0,1E0,3E1],"tree_param":{"num_deleted":"0","num_feature":"100","num_nodes":"5","size_leaf_vector":"1"}},{"base_weights":[3.2222633E-5,-8.3595514E-5,5.607605E-4,-4.3101312E-4,1.919654E-6],"categories":[],"categories_nodes":[],"categories_segments":[],"categories_sizes":[],"default_left":[0,0,0,0,0],"id":50,"left_children":[1,3,-1,-1,-1],"loss_changes":[7.1771888E-6,3.9059196E-6,0E0,0E0,0E0],"parents":[2147483647,0,0,1,1],"right_children":[2,4,-1,-1,-1],"split_conditions":[1.5015326E0,-1.1052337E0,5.607605E-4,-4.3101312E-4,1.919654E-6],"split_indices":[0,0,0,0,0],"split_type":[0,0,0,0,0],"sum_hessian":[3.2E1,3.1E1,1E0,1E0,3E1],"tree_param":{"num_deleted":"0","num_feature":"100","num_nodes":"5","size_leaf_vector":"1"}},{"base_weights":[2.5864803E-5,-1.18668875E-4,3.3102036E-4,-2.3649215E-4,1.4671912E-5,9.078979E-5,-2.8324127E-4,-9.784699E-6,4.8700967E-4,3.4275057E-4,1.274109E-4,-2.0313264E-4,1.493454E-4],"categories":[],"categories_nodes":[],"categories_segments":[],"categories_sizes":[],"default_left":[0,0,0,0,0,0,0,0,0,0,0,0,0],"id":51,"left_children":[1,3,-1,-1,5,7,-1,-1,9,-1,11,-1,-1],"loss_changes":[5.270369E-6,2.6902685E-6,0E0,0E0,1.9832644E-6,1.2382765E-6,0E0,0E0,1.2687179E-6,0E0,1.827076E-6,0E0,0E0],"parents":[2147483647,0,0,1,1,4,4,5,5,8,8,10,10],"right_children":[2,4,-1,-1,6,8,-1,-1,10,-1,12,-1,-1],"split_conditions":[1.4310794E0,-1.0347805E0,3.3102036E-4,-2.3649215E-4,1.3606263E0,1.0083606E0,-2.8324127E-4,-9.784699E-6,1.0788138E0,3.4275057E-4,1.21972E0,-2.0313264E-4,1.493454E-4],"split_indices":[0,0,0,0,0,0,0,0,0,0,0,0,0],"split_type":[0,0,0,0,0,0,0,0,0,0,0,0,0],"sum_hessian":[3.2E1,2.9E1,3E0,4E0,2.5E1,2.4E1,1E0,1.9E1,5E0,1E0,4E0,1E0,3E0],"tree_param":{"num_deleted":"0","num_feature":"100","num_nodes":"13","size_leaf_vector":"1"}},{"base_weights":[2.0836338E-5,-6.7442656E-5,4.2686463E-4,-3.3087732E-4,4.6145533E-7],"categories":[],"categories_nodes":[],"categories_segments":[],"categories_sizes":[],"default_left":[0,0,0,0,0],"id":52,"left_children":[1,3,-1,-1,-1],"loss_changes":[4.180412E-6,2.2874053E-6,0E0,0E0,0E0],"parents":[2147483647,0,0,1,1],"right_children":[2,4,-1,-1,-1],"split_conditions":[1.5015326E0,-1.1052337E0,4.2686463E-4,-3.3087732E-4,4.6145533E-7],"split_indices":[0,0,0,0,0],"split_type":[0,0,0,0,0],"sum_hessian":[3.2E1,3.1E1,1E0,1E0,3E1],"tree_param":{"num_deleted":"0","num_feature":"100","num_nodes":"5","size_leaf_vector":"1"}},{"base_weights":[1.7917517E-5,-5.710125E-5,3.6277773E-4,-2.8123858E-4,4.6145533E-7],"categories":[],"categories_nodes":[],"categories_segments":[],"categories_sizes":[],"default_left":[0,0,0,0,0],"id":53,"left_children":[1,3,-1,-1,-1],"loss_changes":[3.0183583E-6,1.6534051E-6,0E0,0E0,0E0],"parents":[2147483647,0,0,1,1],"right_children":[2,4,-1,-1,-1],"split_conditions":[1.5015326E0,-1.1052337E0,3.6277773E-4,-2.8123858E-4,4.6145533E-7],"split_indices":[0,0,0,0,0],"split_type":[0,0,0,0,0],"sum_hessian":[3.2E1,3.1E1,1E0,1E0,3E1],"tree_param":{"num_deleted":"0","num_feature":"100","num_nodes":"5","size_leaf_vector":"1"}},{"base_weights":[1.5461084E-5,-4.8309565E-5,3.084183E-4,-2.3903848E-4,4.6145533E-7],"categories":[],"categories_nodes":[],"categories_segments":[],"categories_sizes":[],"default_left":[0,0,0,0,0],"id":54,"left_children":[1,3,-1,-1,-1],"loss_changes":[2.180612E-6,1.1951555E-6,0E0,0E0,0E0],"parents":[2147483647,0,0,1,1],"right_children":[2,4,-1,-1,-1],"split_conditions":[1.5015326E0,-1.1052337E0,3.084183E-4,-2.3903848E-4,4.6145533E-7],"split_indices":[0,0,0,0,0],"split_type":[0,0,0,0,0],"sum_hessian":[3.2E1,3.1E1,1E0,1E0,3E1],"tree_param":{"num_deleted":"0","num_feature":"100","num_nodes":"5","size_leaf_vector":"1"}},{"base_weights":[1.335144E-5,-1.2248755E-5,2.6206972E-4],"categories":[],"categories_nodes":[],"categories_segments":[],"categories_sizes":[],"default_left":[0,0,0],"id":55,"left_children":[1,-1,-1],"loss_changes":[1.5736961E-6,0E0,0E0],"parents":[2147483647,0,0],"right_children":[2,-1,-1],"split_conditions":[1.5015326E0,-1.2248755E-5,2.6206972E-4],"split_indices":[0,0,0],"split_type":[0,0,0],"sum_hessian":[3.2E1,3.1E1,1E0],"tree_param":{"num_deleted":"0","num_feature":"100","num_nodes":"3","size_leaf_vector":"1"}},{"base_weights":[1.6385859E-5,-5.127589E-5,1.5592575E-4,1.940234E-6,-2.3918152E-4,-2.9194356E-5,1.1959076E-4],"categories":[],"categories_nodes":[],"categories_segments":[],"categories_sizes":[],"default_left":[0,0,0,0,0,0,0],"id":56,"left_children":[1,3,-1,5,-1,-1,-1],"loss_changes":[1.1505867E-6,1.1925171E-6,0E0,1.1806369E-6,0E0,0E0,0E0],"parents":[2147483647,0,0,1,1,3,3],"right_children":[2,4,-1,6,-1,-1,-1],"split_conditions":[1.4310794E0,1.3606263E0,1.5592575E-4,1.0083606E0,-2.3918152E-4,-2.9194356E-5,1.1959076E-4],"split_indices":[0,0,0,0,0,0,0],"split_type":[0,0,0,0,0,0,0],"sum_hessian":[3.2E1,2.9E1,3E0,2.8E1,1E0,2.3E1,5E0],"tree_param":{"num_deleted":"0","num_feature":"100","num_nodes":"7","size_leaf_vector":"1"}},{"base_weights":[1.1964278E-5],"categories":[],"categories_nodes":[],"categories_segments":[],"categories_sizes":[],"default_left":[0],"id":57,"left_children":[-1],"loss_changes":[0E0],"parents":[2147483647],"right_children":[-1],"split_conditions":[3.5892836E-6],"split_indices":[0],"split_type":[0],"sum_hessian":[3.2E1],"tree_param":{"num_deleted":"0","num_feature":"100","num_nodes":"1","size_leaf_vector":"1"}},{"base_weights":[8.265178E-6],"categories":[],"categories_nodes":[],"categories_segments":[],"categories_sizes":[],"default_left":[0],"id":58,"left_children":[-1],"loss_changes":[0E0],"parents":[2147483647],"right_children":[-1],"split_conditions":[2.4795534E-6],"split_indices":[0],"split_type":[0],"sum_hessian":[3.2E1],"tree_param":{"num_deleted":"0","num_feature":"100","num_nodes":"1","size_leaf_vector":"1"}},{"base_weights":[5.4041543E-6],"categories":[],"categories_nodes":[],"categories_segments":[],"categories_sizes":[],"default_left":[0],"id":59,"left_children":[-1],"loss_changes":[0E0],"parents":[2147483647],"right_children":[-1],"split_conditions":[1.6212464E-6],"split_indices":[0],"split_type":[0],"sum_hessian":[3.2E1],"tree_param":{"num_deleted":"0","num_feature":"100","num_nodes":"1","size_leaf_vector":"1"}},{"base_weights":[4.305984E-6],"categories":[],"categories_nodes":[],"categories_segments":[],"categories_sizes":[],"default_left":[0],"id":60,"left_children":[-1],"loss_changes":[0E0],"parents":[2147483647],"right_children":[-1],"split_conditions":[1.2917952E-6],"split_indices":[0],"split_type":[0],"sum_hessian":[3.2E1],"tree_param":{"num_deleted":"0","num_feature":"100","num_nodes":"1","size_leaf_vector":"1"}},{"base_weights":[3.4679067E-6],"categories":[],"categories_nodes":[],"categories_segments":[],"categories_sizes":[],"default_left":[0],"id":61,"left_children":[-1],"loss_changes":[0E0],"parents":[2147483647],"right_children":[-1],"split_conditions":[1.040372E-6],"split_indices":[0],"split_type":[0],"sum_hessian":[3.2E1],"tree_param":{"num_deleted":"0","num_feature":"100","num_nodes":"1","size_leaf_vector":"1"}},{"base_weights":[2.6298292E-6],"categories":[],"categories_nodes":[],"categories_segments":[],"categories_sizes":[],"default_left":[0],"id":62,"left_children":[-1],"loss_changes":[0E0],"parents":[2147483647],"right_children":[-1],"split_conditions":[7.889488E-7],"split_indices":[0],"split_type":[0],"sum_hessian":[3.2E1],"tree_param":{"num_deleted":"0","num_feature":"100","num_nodes":"1","size_leaf_vector":"1"}},{"base_weights":[2.3697362E-6],"categories":[],"categories_nodes":[],"categories_segments":[],"categories_sizes":[],"default_left":[0],"id":63,"left_children":[-1],"loss_changes":[0E0],"parents":[2147483647],"right_children":[-1],"split_conditions":[7.1092086E-7],"split_indices":[0],"split_type":[0],"sum_hessian":[3.2E1],"tree_param":{"num_deleted":"0","num_feature":"100","num_nodes":"1","size_leaf_vector":"1"}},{"base_weights":[2.1096432E-6],"categories":[],"categories_nodes":[],"categories_segments":[],"categories_sizes":[],"default_left":[0],"id":64,"left_children":[-1],"loss_changes":[0E0],"parents":[2147483647],"right_children":[-1],"split_conditions":[6.32893E-7],"split_indices":[0],"split_type":[0],"sum_hessian":[3.2E1],"tree_param":{"num_deleted":"0","num_feature":"100","num_nodes":"1","size_leaf_vector":"1"}},{"base_weights":[1.8495502E-6],"categories":[],"categories_nodes":[],"categories_segments":[],"categories_sizes":[],"default_left":[0],"id":65,"left_children":[-1],"loss_changes":[0E0],"parents":[2147483647],"right_children":[-1],"split_conditions":[5.548651E-7],"split_indices":[0],"split_type":[0],"sum_hessian":[3.2E1],"tree_param":{"num_deleted":"0","num_feature":"100","num_nodes":"1","size_leaf_vector":"1"}},{"base_weights":[1.5894572E-6],"categories":[],"categories_nodes":[],"categories_segments":[],"categories_sizes":[],"default_left":[0],"id":66,"left_children":[-1],"loss_changes":[0E0],"parents":[2147483647],"right_children":[-1],"split_conditions":[4.7683716E-7],"split_indices":[0],"split_type":[0],"sum_hessian":[3.2E1],"tree_param":{"num_deleted":"0","num_feature":"100","num_nodes":"1","size_leaf_vector":"1"}},{"base_weights":[1.3293642E-6],"categories":[],"categories_nodes":[],"categories_segments":[],"categories_sizes":[],"default_left":[0],"id":67,"left_children":[-1],"loss_changes":[0E0],"parents":[2147483647],"right_children":[-1],"split_conditions":[3.9880928E-7],"split_indices":[0],"split_type":[0],"sum_hessian":[3.2E1],"tree_param":{"num_deleted":"0","num_feature":"100","num_nodes":"1","size_leaf_vector":"1"}},{"base_weights":[1.3293642E-6],"categories":[],"categories_nodes":[],"categories_segments":[],"categories_sizes":[],"default_left":[0],"id":68,"left_children":[-1],"loss_changes":[0E0],"parents":[2147483647],"right_children":[-1],"split_conditions":[3.9880928E-7],"split_indices":[0],"split_type":[0],"sum_hessian":[3.2E1],"tree_param":{"num_deleted":"0","num_feature":"100","num_nodes":"1","size_leaf_vector":"1"}},{"base_weights":[1.3293642E-6],"categories":[],"categories_nodes":[],"categories_segments":[],"categories_sizes":[],"default_left":[0],"id":69,"left_children":[-1],"loss_changes":[0E0],"parents":[2147483647],"right_children":[-1],"split_conditions":[3.9880928E-7],"split_indices":[0],"split_type":[0],"sum_hessian":[3.2E1],"tree_param":{"num_deleted":"0","num_feature":"100","num_nodes":"1","size_leaf_vector":"1"}},{"base_weights":[1.3293642E-6],"categories":[],"categories_nodes":[],"categories_segments":[],"categories_sizes":[],"default_left":[0],"id":70,"left_children":[-1],"loss_changes":[0E0],"parents":[2147483647],"right_children":[-1],"split_conditions":[3.9880928E-7],"split_indices":[0],"split_type":[0],"sum_hessian":[3.2E1],"tree_param":{"num_deleted":"0","num_feature":"100","num_nodes":"1","size_leaf_vector":"1"}},{"base_weights":[1.3293642E-6],"categories":[],"categories_nodes":[],"categories_segments":[],"categories_sizes":[],"default_left":[0],"id":71,"left_children":[-1],"loss_changes":[0E0],"parents":[2147483647],"right_children":[-1],"split_conditions":[3.9880928E-7],"split_indices":[0],"split_type":[0],"sum_hessian":[3.2E1],"tree_param":{"num_deleted":"0","num_feature":"100","num_nodes":"1","size_leaf_vector":"1"}},{"base_weights":[1.3293642E-6],"categories":[],"categories_nodes":[],"categories_segments":[],"categories_sizes":[],"default_left":[0],"id":72,"left_children":[-1],"loss_changes":[0E0],"parents":[2147483647],"right_children":[-1],"split_conditions":[3.9880928E-7],"split_indices":[0],"split_type":[0],"sum_hessian":[3.2E1],"tree_param":{"num_deleted":"0","num_feature":"100","num_nodes":"1","size_leaf_vector":"1"}},{"base_weights":[1.3293642E-6],"categories":[],"categories_nodes":[],"categories_segments":[],"categories_sizes":[],"default_left":[0],"id":73,"left_children":[-1],"loss_changes":[0E0],"parents":[2147483647],"right_children":[-1],"split_conditions":[3.9880928E-7],"split_indices":[0],"split_type":[0],"sum_hessian":[3.2E1],"tree_param":{"num_deleted":"0","num_feature":"100","num_nodes":"1","size_leaf_vector":"1"}},{"base_weights":[1.3293642E-6],"categories":[],"categories_nodes":[],"categories_segments":[],"categories_sizes":[],"default_left":[0],"id":74,"left_children":[-1],"loss_changes":[0E0],"parents":[2147483647],"right_children":[-1],"split_conditions":[3.9880928E-7],"split_indices":[0],"split_type":[0],"sum_hessian":[3.2E1],"tree_param":{"num_deleted":"0","num_feature":"100","num_nodes":"1","size_leaf_vector":"1"}},{"base_weights":[1.3293642E-6],"categories":[],"categories_nodes":[],"categories_segments":[],"categories_sizes":[],"default_left":[0],"id":75,"left_children":[-1],"loss_changes":[0E0],"parents":[2147483647],"right_children":[-1],"split_conditions":[3.9880928E-7],"split_indices":[0],"split_type":[0],"sum_hessian":[3.2E1],"tree_param":{"num_deleted":"0","num_feature":"100","num_nodes":"1","size_leaf_vector":"1"}},{"base_weights":[1.3293642E-6],"categories":[],"categories_nodes":[],"categories_segments":[],"categories_sizes":[],"default_left":[0],"id":76,"left_children":[-1],"loss_changes":[0E0],"parents":[2147483647],"right_children":[-1],"split_conditions":[3.9880928E-7],"split_indices":[0],"split_type":[0],"sum_hessian":[3.2E1],"tree_param":{"num_deleted":"0","num_feature":"100","num_nodes":"1","size_leaf_vector":"1"}},{"base_weights":[1.3293642E-6],"categories":[],"categories_nodes":[],"categories_segments":[],"categories_sizes":[],"default_left":[0],"id":77,"left_children":[-1],"loss_changes":[0E0],"parents":[2147483647],"right_children":[-1],"split_conditions":[3.9880928E-7],"split_indices":[0],"split_type":[0],"sum_hessian":[3.2E1],"tree_param":{"num_deleted":"0","num_feature":"100","num_nodes":"1","size_leaf_vector":"1"}},{"base_weights":[1.3293642E-6],"categories":[],"categories_nodes":[],"categories_segments":[],"categories_sizes":[],"default_left":[0],"id":78,"left_children":[-1],"loss_changes":[0E0],"parents":[2147483647],"right_children":[-1],"split_conditions":[3.9880928E-7],"split_indices":[0],"split_type":[0],"sum_hessian":[3.2E1],"tree_param":{"num_deleted":"0","num_feature":"100","num_nodes":"1","size_leaf_vector":"1"}},{"base_weights":[1.3293642E-6],"categories":[],"categories_nodes":[],"categories_segments":[],"categories_sizes":[],"default_left":[0],"id":79,"left_children":[-1],"loss_changes":[0E0],"parents":[2147483647],"right_children":[-1],"split_conditions":[3.9880928E-7],"split_indices":[0],"split_type":[0],"sum_hessian":[3.2E1],"tree_param":{"num_deleted":"0","num_feature":"100","num_nodes":"1","size_leaf_vector":"1"}},{"base_weights":[1.3293642E-6],"categories":[],"categories_nodes":[],"categories_segments":[],"categories_sizes":[],"default_left":[0],"id":80,"left_children":[-1],"loss_changes":[0E0],"parents":[2147483647],"right_children":[-1],"split_conditions":[3.9880928E-7],"split_indices":[0],"split_type":[0],"sum_hessian":[3.2E1],"tree_param":{"num_deleted":"0","num_feature":"100","num_nodes":"1","size_leaf_vector":"1"}},{"base_weights":[1.3293642E-6],"categories":[],"categories_nodes":[],"categories_segments":[],"categories_sizes":[],"default_left":[0],"id":81,"left_children":[-1],"loss_changes":[0E0],"parents":[2147483647],"right_children":[-1],"split_conditions":[3.9880928E-7],"split_indices":[0],"split_type":[0],"sum_hessian":[3.2E1],"tree_param":{"num_deleted":"0","num_feature":"100","num_nodes":"1","size_leaf_vector":"1"}},{"base_weights":[1.3293642E-6],"categories":[],"categories_nodes":[],"categories_segments":[],"categories_sizes":[],"default_left":[0],"id":82,"left_children":[-1],"loss_changes":[0E0],"parents":[2147483647],"right_children":[-1],"split_conditions":[3.9880928E-7],"split_indices":[0],"split_type":[0],"sum_hessian":[3.2E1],"tree_param":{"num_deleted":"0","num_feature":"100","num_nodes":"1","size_leaf_vector":"1"}},{"base_weights":[1.3293642E-6],"categories":[],"categories_nodes":[],"categories_segments":[],"categories_sizes":[],"default_left":[0],"id":83,"left_children":[-1],"loss_changes":[0E0],"parents":[2147483647],"right_children":[-1],"split_conditions":[3.9880928E-7],"split_indices":[0],"split_type":[0],"sum_hessian":[3.2E1],"tree_param":{"num_deleted":"0","num_feature":"100","num_nodes":"1","size_leaf_vector":"1"}},{"base_weights":[1.3293642E-6],"categories":[],"categories_nodes":[],"categories_segments":[],"categories_sizes":[],"default_left":[0],"id":84,"left_children":[-1],"loss_changes":[0E0],"parents":[2147483647],"right_children":[-1],"split_conditions":[3.9880928E-7],"split_indices":[0],"split_type":[0],"sum_hessian":[3.2E1],"tree_param":{"num_deleted":"0","num_feature":"100","num_nodes":"1","size_leaf_vector":"1"}},{"base_weights":[1.3293642E-6],"categories":[],"categories_nodes":[],"categories_segments":[],"categories_sizes":[],"default_left":[0],"id":85,"left_children":[-1],"loss_changes":[0E0],"parents":[2147483647],"right_children":[-1],"split_conditions":[3.9880928E-7],"split_indices":[0],"split_type":[0],"sum_hessian":[3.2E1],"tree_param":{"num_deleted":"0","num_feature":"100","num_nodes":"1","size_leaf_vector":"1"}},{"base_weights":[1.3293642E-6],"categories":[],"categories_nodes":[],"categories_segments":[],"categories_sizes":[],"default_left":[0],"id":86,"left_children":[-1],"loss_changes":[0E0],"parents":[2147483647],"right_children":[-1],"split_conditions":[3.9880928E-7],"split_indices":[0],"split_type":[0],"sum_hessian":[3.2E1],"tree_param":{"num_deleted":"0","num_feature":"100","num_nodes":"1","size_leaf_vector":"1"}},{"base_weights":[1.3293642E-6],"categories":[],"categories_nodes":[],"categories_segments":[],"categories_sizes":[],"default_left":[0],"id":87,"left_children":[-1],"loss_changes":[0E0],"parents":[2147483647],"right_children":[-1],"split_conditions":[3.9880928E-7],"split_indices":[0],"split_type":[0],"sum_hessian":[3.2E1],"tree_param":{"num_deleted":"0","num_feature":"100","num_nodes":"1","size_leaf_vector":"1"}},{"base_weights":[1.3293642E-6],"categories":[],"categories_nodes":[],"categories_segments":[],"categories_sizes":[],"default_left":[0],"id":88,"left_children":[-1],"loss_changes":[0E0],"parents":[2147483647],"right_children":[-1],"split_conditions":[3.9880928E-7],"split_indices":[0],"split_type":[0],"sum_hessian":[3.2E1],"tree_param":{"num_deleted":"0","num_feature":"100","num_nodes":"1","size_leaf_vector":"1"}},{"base_weights":[1.3293642E-6],"categories":[],"categories_nodes":[],"categories_segments":[],"categories_sizes":[],"default_left":[0],"id":89,"left_children":[-1],"loss_changes":[0E0],"parents":[2147483647],"right_children":[-1],"split_conditions":[3.9880928E-7],"split_indices":[0],"split_type":[0],"sum_hessian":[3.2E1],"tree_param":{"num_deleted":"0","num_feature":"100","num_nodes":"1","size_leaf_vector":"1"}},{"base_weights":[1.3293642E-6],"categories":[],"categories_nodes":[],"categories_segments":[],"categories_sizes":[],"default_left":[0],"id":90,"left_children":[-1],"loss_changes":[0E0],"parents":[2147483647],"right_children":[-1],"split_conditions":[3.9880928E-7],"split_indices":[0],"split_type":[0],"sum_hessian":[3.2E1],"tree_param":{"num_deleted":"0","num_feature":"100","num_nodes":"1","size_leaf_vector":"1"}},{"base_weights":[1.3293642E-6],"categories":[],"categories_nodes":[],"categories_segments":[],"categories_sizes":[],"default_left":[0],"id":91,"left_children":[-1],"loss_changes":[0E0],"parents":[2147483647],"right_children":[-1],"split_conditions":[3.9880928E-7],"split_indices":[0],"split_type":[0],"sum_hessian":[3.2E1],"tree_param":{"num_deleted":"0","num_feature":"100","num_nodes":"1","size_leaf_vector":"1"}},{"base_weights":[1.3293642E-6],"categories":[],"categories_nodes":[],"categories_segments":[],"categories_sizes":[],"default_left":[0],"id":92,"left_children":[-1],"loss_changes":[0E0],"parents":[2147483647],"right_children":[-1],"split_conditions":[3.9880928E-7],"split_indices":[0],"split_type":[0],"sum_hessian":[3.2E1],"tree_param":{"num_deleted":"0","num_feature":"100","num_nodes":"1","size_leaf_vector":"1"}},{"base_weights":[1.3293642E-6],"categories":[],"categories_nodes":[],"categories_segments":[],"categories_sizes":[],"default_left":[0],"id":93,"left_children":[-1],"loss_changes":[0E0],"parents":[2147483647],"right_children":[-1],"split_conditions":[3.9880928E-7],"split_indices":[0],"split_type":[0],"sum_hessian":[3.2E1],"tree_param":{"num_deleted":"0","num_feature":"100","num_nodes":"1","size_leaf_vector":"1"}},{"base_weights":[1.3293642E-6],"categories":[],"categories_nodes":[],"categories_segments":[],"categories_sizes":[],"default_left":[0],"id":94,"left_children":[-1],"loss_changes":[0E0],"parents":[2147483647],"right_children":[-1],"split_conditions":[3.9880928E-7],"split_indices":[0],"split_type":[0],"sum_hessian":[3.2E1],"tree_param":{"num_deleted":"0","num_feature":"100","num_nodes":"1","size_leaf_vector":"1"}},{"base_weights":[1.3293642E-6],"categories":[],"categories_nodes":[],"categories_segments":[],"categories_sizes":[],"default_left":[0],"id":95,"left_children":[-1],"loss_changes":[0E0],"parents":[2147483647],"right_children":[-1],"split_conditions":[3.9880928E-7],"split_indices":[0],"split_type":[0],"sum_hessian":[3.2E1],"tree_param":{"num_deleted":"0","num_feature":"100","num_nodes":"1","size_leaf_vector":"1"}},{"base_weights":[1.3293642E-6],"categories":[],"categories_nodes":[],"categories_segments":[],"categories_sizes":[],"default_left":[0],"id":96,"left_children":[-1],"loss_changes":[0E0],"parents":[2147483647],"right_children":[-1],"split_conditions":[3.9880928E-7],"split_indices":[0],"split_type":[0],"sum_hessian":[3.2E1],"tree_param":{"num_deleted":"0","num_feature":"100","num_nodes":"1","size_leaf_vector":"1"}},{"base_weights":[1.3293642E-6],"categories":[],"categories_nodes":[],"categories_segments":[],"categories_sizes":[],"default_left":[0],"id":97,"left_children":[-1],"loss_changes":[0E0],"parents":[2147483647],"right_children":[-1],"split_conditions":[3.9880928E-7],"split_indices":[0],"split_type":[0],"sum_hessian":[3.2E1],"tree_param":{"num_deleted":"0","num_feature":"100","num_nodes":"1","size_leaf_vector":"1"}},{"base_weights":[1.3293642E-6],"categories":[],"categories_nodes":[],"categories_segments":[],"categories_sizes":[],"default_left":[0],"id":98,"left_children":[-1],"loss_changes":[0E0],"parents":[2147483647],"right_children":[-1],"split_conditions":[3.9880928E-7],"split_indices":[0],"split_type":[0],"sum_hessian":[3.2E1],"tree_param":{"num_deleted":"0","num_feature":"100","num_nodes":"1","size_leaf_vector":"1"}},{"base_weights":[1.3293642E-6],"categories":[],"categories_nodes":[],"categories_segments":[],"categories_sizes":[],"default_left":[0],"id":99,"left_children":[-1],"loss_changes":[0E0],"parents":[2147483647],"right_children":[-1],"split_conditions":[3.9880928E-7],"split_indices":[0],"split_type":[0],"sum_hessian":[3.2E1],"tree_param":{"num_deleted":"0","num_feature":"100","num_nodes":"1","size_leaf_vector":"1"}}]},"name":"gbtree"},"learner_model_param":{"base_score":"3.06875E1","boost_from_average":"1","num_class":"0","num_feature":"100","num_target":"1"},"objective":{"name":"reg:squarederror","reg_loss_param":{"scale_pos_weight":"1"}}},"version":[2,1,1]}